{"loss": 0.16491492092609406, "_runtime": 61, "_timestamp": 1641468311, "_step": 69, "validation_accuracy": 0.9599999785423279, "gradients/fc3.bias": {"_type": "histogram", "values": [1.0, 0.0, 0.0, 0.0, 0.0, 0.0, 0.0, 0.0, 0.0, 0.0, 0.0, 0.0, 0.0, 0.0, 0.0, 0.0, 0.0, 0.0, 0.0, 1.0, 0.0, 0.0, 0.0, 0.0, 0.0, 0.0, 0.0, 0.0, 0.0, 0.0, 0.0, 1.0, 4.0, 0.0, 0.0, 0.0, 0.0, 2.0, 0.0, 0.0, 0.0, 0.0, 0.0, 0.0, 0.0, 0.0, 0.0, 0.0, 0.0, 0.0, 0.0, 0.0, 0.0, 0.0, 0.0, 0.0, 0.0, 0.0, 0.0, 0.0, 0.0, 0.0, 0.0, 1.0], "bins": [-0.005518120713531971, -0.005345574580132961, -0.005173028446733952, -0.005000482313334942, -0.0048279366455972195, -0.00465539051219821, -0.0044828443787992, -0.00431029824540019, -0.004137752112001181, -0.003965205978602171, -0.003792660078033805, -0.003620113944634795, -0.0034475678112357855, -0.0032750219106674194, -0.0031024757772684097, -0.0029299296438694, -0.002757383743301034, -0.0025848376099020243, -0.0024122917093336582, -0.0022397455759346485, -0.002067199442535639, -0.001894653425551951, -0.001722107408568263, -0.0015495612751692533, -0.0013770153746008873, -0.0012044693576171994, -0.0010319232242181897, -0.0008593772072345018, -0.000686831132043153, -0.0005142850568518043, -0.0003417390398681164, -0.00016919290646910667, 3.3532269299030304e-06, 0.0001758992875693366, 0.00034844534820877016, 0.0005209913942962885, 0.0006935374694876373, 0.0008660835446789861, 0.001038629561662674, 0.0012111756950616837, 0.0013837218284606934, 0.0015562678454443812, 0.001728813978843391, 0.0019013599958270788, 0.0020739061292260885, 0.0022464520297944546, 0.0024189981631934643, 0.002591544296592474, 0.00276409019716084, 0.0029366363305598497, 0.003109182231128216, 0.0032817283645272255, 0.003454274497926235, 0.003626820631325245, 0.003799366531893611, 0.003971912898123264, 0.004144458565860987, 0.004317004699259996, 0.004489550832659006, 0.0046620965003967285, 0.004834642633795738, 0.005007188767194748, 0.005179734900593758, 0.005352281033992767, 0.005524827167391777]}, "gradients/fc3.weight": {"_type": "histogram", "values": [1.0, 0.0, 0.0, 0.0, 1.0, 0.0, 0.0, 0.0, 0.0, 1.0, 0.0, 1.0, 0.0, 2.0, 0.0, 1.0, 1.0, 2.0, 1.0, 0.0, 2.0, 2.0, 4.0, 6.0, 3.0, 3.0, 2.0, 3.0, 8.0, 5.0, 2.0, 11.0, 9.0, 5.0, 17.0, 48.0, 540.0, 61.0, 36.0, 9.0, 7.0, 4.0, 2.0, 4.0, 3.0, 4.0, 0.0, 2.0, 4.0, 3.0, 4.0, 3.0, 2.0, 2.0, 1.0, 1.0, 1.0, 1.0, 1.0, 2.0, 0.0, 0.0, 1.0, 1.0], "bins": [-0.033666811883449554, -0.03274064138531685, -0.031814467161893845, -0.03088829666376114, -0.029962124302983284, -0.02903595194220543, -0.028109781444072723, -0.02718360908329487, -0.026257436722517014, -0.02533126436173916, -0.024405092000961304, -0.023478921502828598, -0.022552749142050743, -0.021626576781272888, -0.020700406283140182, -0.019774233922362328, -0.018848061561584473, -0.017921889200806618, -0.016995716840028763, -0.016069546341896057, -0.015143373981118202, -0.014217201620340347, -0.013291030190885067, -0.012364858761429787, -0.011438686400651932, -0.010512514039874077, -0.009586342610418797, -0.008660171180963516, -0.007733998820185661, -0.006807826925069094, -0.005881655029952526, -0.0049554831348359585, -0.004029311239719391, -0.0031031393446028233, -0.0021769674494862556, -0.001250795554369688, -0.0003246236592531204, 0.0006015482358634472, 0.0015277201309800148, 0.0024538920260965824, 0.00338006392121315, 0.004306235816329718, 0.005232407711446285, 0.006158579606562853, 0.0070847515016794205, 0.008010923862457275, 0.008937095291912556, 0.009863266721367836, 0.010789439082145691, 0.011715611442923546, 0.012641782872378826, 0.013567954301834106, 0.014494126662611961, 0.015420299023389816, 0.016346469521522522, 0.017272641882300377, 0.018198814243078232, 0.019124986603856087, 0.02005115896463394, 0.020977329462766647, 0.021903501823544502, 0.022829674184322357, 0.023755844682455063, 0.024682017043232918, 0.025608189404010773]}, "gradients/fc2.bias": {"_type": "histogram", "values": [1.0, 0.0, 0.0, 0.0, 2.0, 0.0, 0.0, 0.0, 0.0, 0.0, 1.0, 0.0, 0.0, 1.0, 1.0, 0.0, 1.0, 0.0, 1.0, 0.0, 0.0, 1.0, 2.0, 1.0, 1.0, 2.0, 3.0, 0.0, 2.0, 3.0, 7.0, 4.0, 14.0, 7.0, 1.0, 4.0, 7.0, 1.0, 4.0, 0.0, 2.0, 0.0, 0.0, 1.0, 1.0, 0.0, 1.0, 0.0, 0.0, 0.0, 2.0, 0.0, 1.0, 0.0, 0.0, 1.0, 0.0, 0.0, 0.0, 1.0, 1.0, 0.0, 0.0, 1.0], "bins": [-0.003430582582950592, -0.003326421370729804, -0.0032222603913396597, -0.0031180991791188717, -0.0030139379668980837, -0.0029097767546772957, -0.0028056157752871513, -0.0027014545630663633, -0.0025972933508455753, -0.0024931321386247873, -0.002388971159234643, -0.002284809947013855, -0.002180648734793067, -0.002076487522572279, -0.0019723265431821346, -0.0018681653309613466, -0.0017640043515712023, -0.001659843255765736, -0.001555682043544948, -0.001451520947739482, -0.001347359735518694, -0.0012431986397132277, -0.0011390375439077616, -0.0010348763316869736, -0.0009307153522968292, -0.0008265541982837021, -0.000722393044270575, -0.0006182319484651089, -0.0005140707944519818, -0.0004099096404388547, -0.0003057485446333885, -0.00020158739062026143, -9.742612019181252e-05, 6.735019269399345e-06, 0.0001108961587306112, 0.00021505728363990784, 0.0003192184376530349, 0.000423379591666162, 0.0005275406874716282, 0.0006317018414847553, 0.0007358631119132042, 0.0008400242659263313, 0.0009441854199394584, 0.0010483465157449245, 0.0011525077279657125, 0.0012566688237711787, 0.001360829919576645, 0.001464991131797433, 0.0015691521111875772, 0.0016733132069930434, 0.0017774744192138314, 0.0018816355150192976, 0.0019857967272400856, 0.00208995770663023, 0.002194118918851018, 0.002298280131071806, 0.0024024411104619503, 0.0025066023226827383, 0.0026107633020728827, 0.0027149245142936707, 0.0028190857265144587, 0.0029232469387352467, 0.003027407918125391, 0.003131569130346179, 0.003235730342566967]}, "gradients/fc2.weight": {"_type": "histogram", "values": [1.0, 0.0, 1.0, 1.0, 2.0, 0.0, 1.0, 3.0, 2.0, 2.0, 3.0, 2.0, 2.0, 6.0, 4.0, 8.0, 7.0, 9.0, 13.0, 17.0, 17.0, 21.0, 28.0, 37.0, 34.0, 51.0, 83.0, 92.0, 161.0, 237.0, 440.0, 1623.0, 5608.0, 628.0, 312.0, 162.0, 89.0, 76.0, 60.0, 48.0, 36.0, 20.0, 30.0, 18.0, 18.0, 11.0, 13.0, 6.0, 8.0, 5.0, 6.0, 4.0, 0.0, 3.0, 3.0, 2.0, 0.0, 2.0, 1.0, 1.0, 0.0, 1.0, 0.0, 1.0], "bins": [-0.023889264091849327, -0.023147260770201683, -0.02240525744855404, -0.021663254126906395, -0.02092125080525875, -0.020179245620965958, -0.019437242299318314, -0.01869523897767067, -0.017953235656023026, -0.01721123233437538, -0.016469229012727737, -0.015727225691080093, -0.014985221438109875, -0.01424321811646223, -0.013501214794814587, -0.012759210541844368, -0.012017208151519299, -0.011275204829871655, -0.01053320150822401, -0.009791197255253792, -0.009049193933606148, -0.008307190611958504, -0.00756518729031086, -0.006823183503001928, -0.006081180647015572, -0.0053391773253679276, -0.004597173538058996, -0.003855170216411352, -0.0031131666619330645, -0.0023711631074547768, -0.0016291597858071327, -0.0008871559984982014, -0.00014515221118927002, 0.0005968512850813568, 0.0013388547813519835, 0.0020808582194149494, 0.002822861773893237, 0.003564865328371525, 0.004306868650019169, 0.0050488724373281, 0.0057908762246370316, 0.006532879546284676, 0.007274883333593607, 0.008016886189579964, 0.008758890442550182, 0.009500893764197826, 0.01024289708584547, 0.010984901338815689, 0.011726903729140759, 0.012468907050788403, 0.013210910372436047, 0.013952914625406265, 0.01469491794705391, 0.015436921268701553, 0.016178924590349197, 0.01692092791199684, 0.017662931233644485, 0.01840493455529213, 0.019146937876939774, 0.019888941198587418, 0.02063094452023506, 0.021372947841882706, 0.02211495116353035, 0.022856956347823143, 0.023598959669470787]}, "gradients/fc1.bias": {"_type": "histogram", "values": [1.0, 0.0, 0.0, 0.0, 0.0, 0.0, 0.0, 0.0, 1.0, 0.0, 0.0, 0.0, 0.0, 1.0, 0.0, 1.0, 0.0, 0.0, 0.0, 1.0, 1.0, 1.0, 0.0, 0.0, 0.0, 0.0, 0.0, 3.0, 0.0, 3.0, 0.0, 3.0, 1.0, 1.0, 0.0, 2.0, 7.0, 10.0, 4.0, 5.0, 15.0, 17.0, 3.0, 1.0, 5.0, 2.0, 4.0, 2.0, 2.0, 2.0, 1.0, 2.0, 3.0, 1.0, 1.0, 2.0, 4.0, 2.0, 2.0, 1.0, 0.0, 0.0, 0.0, 2.0], "bins": [-0.003881161566823721, -0.0037866828497499228, -0.003692203899845481, -0.0035977251827716827, -0.0035032464656978846, -0.0034087677486240864, -0.0033142887987196445, -0.0032198100816458464, -0.003125331364572048, -0.00303085264749825, -0.002936373697593808, -0.00284189498052001, -0.002747416263446212, -0.0026529375463724136, -0.002558458596467972, -0.0024639798793941736, -0.002369500929489732, -0.0022750222124159336, -0.0021805432625114918, -0.0020860645454376936, -0.0019915858283638954, -0.0018971069948747754, -0.0018026281613856554, -0.0017081494443118572, -0.0016136704944074154, -0.0015191916609182954, -0.0014247129438444972, -0.0013302341103553772, -0.001235755393281579, -0.001141276559792459, -0.001046797726303339, -0.0009523189510218799, -0.0008578405249863863, -0.0007633617497049272, -0.0006688829744234681, -0.0005744041409343481, -0.000479925365652889, -0.0003854465903714299, -0.0002909677568823099, -0.00019648898160085082, -0.00010201032273471355, -7.531532901339233e-06, 8.694725693203509e-05, 0.00018142606131732464, 0.00027590483659878373, 0.0003703836118802428, 0.00046486244536936283, 0.0005593412206508219, 0.0006538201123476028, 0.0007482988876290619, 0.000842777662910521, 0.000937256496399641, 0.0010317352134734392, 0.0011262140469625592, 0.0012206928804516792, 0.0013151715975254774, 0.0014096504310145974, 0.0015041292645037174, 0.0015986079815775156, 0.0016930868150666356, 0.0017875656485557556, 0.0018820443656295538, 0.001976523082703352, 0.002071002032607794, 0.002165480749681592]}, "gradients/fc1.weight": {"_type": "histogram", "values": [1.0, 1.0, 0.0, 0.0, 0.0, 0.0, 1.0, 3.0, 2.0, 3.0, 2.0, 2.0, 3.0, 4.0, 6.0, 7.0, 10.0, 7.0, 8.0, 12.0, 13.0, 14.0, 15.0, 19.0, 23.0, 21.0, 21.0, 35.0, 39.0, 61.0, 71.0, 103.0, 111.0, 155.0, 206.0, 307.0, 590.0, 1204.0, 3474.0, 18972.0, 2000.0, 1022.0, 655.0, 417.0, 243.0, 174.0, 140.0, 109.0, 89.0, 70.0, 59.0, 43.0, 44.0, 39.0, 19.0, 21.0, 15.0, 16.0, 6.0, 2.0, 2.0, 3.0, 4.0, 2.0], "bins": [-0.038567766547203064, -0.03758813813328743, -0.036608513444662094, -0.03562888503074646, -0.034649260342121124, -0.03366963192820549, -0.032690003514289856, -0.03171037882566452, -0.030730750411748886, -0.0297511238604784, -0.028771497309207916, -0.027791868895292282, -0.026812242344021797, -0.025832615792751312, -0.024852987378835678, -0.023873360827565193, -0.022893734276294708, -0.021914107725024223, -0.02093448117375374, -0.019954852759838104, -0.01897522620856762, -0.017995599657297134, -0.0170159712433815, -0.016036344692111015, -0.01505671814084053, -0.014077091589570045, -0.013097464106976986, -0.012117836624383926, -0.011138210073113441, -0.010158583521842957, -0.009178956039249897, -0.008199328556656837, -0.007219703868031502, -0.0062400768510997295, -0.005260449834167957, -0.004280822817236185, -0.003301195800304413, -0.0023215687833726406, -0.0013419417664408684, -0.00036231474950909615, 0.0006173122674226761, 0.0015969392843544483, 0.0025765663012862206, 0.0035561933182179928, 0.004535820335149765, 0.005515447352081537, 0.0064950743690133095, 0.007474701385945082, 0.008454328402876854, 0.009433954954147339, 0.010413582436740398, 0.011393209919333458, 0.012372836470603943, 0.013352463021874428, 0.014332090504467487, 0.015311717987060547, 0.016291344538331032, 0.017270971089601517, 0.01825059950351715, 0.019230226054787636, 0.02020985260605812, 0.021189479157328606, 0.02216910570859909, 0.023148734122514725, 0.02412836067378521]}, "gradients/conv2.weight": {"_type": "histogram", "values": [1.0, 0.0, 1.0, 0.0, 0.0, 0.0, 1.0, 0.0, 3.0, 4.0, 1.0, 2.0, 3.0, 5.0, 7.0, 5.0, 9.0, 5.0, 4.0, 12.0, 10.0, 7.0, 11.0, 17.0, 10.0, 17.0, 26.0, 28.0, 23.0, 50.0, 34.0, 46.0, 49.0, 62.0, 73.0, 75.0, 110.0, 120.0, 161.0, 209.0, 267.0, 200.0, 153.0, 114.0, 72.0, 67.0, 69.0, 35.0, 45.0, 30.0, 32.0, 28.0, 19.0, 17.0, 15.0, 5.0, 5.0, 4.0, 7.0, 4.0, 3.0, 2.0, 4.0, 2.0], "bins": [-0.030120600014925003, -0.029371611773967743, -0.028622625395655632, -0.027873637154698372, -0.027124648913741112, -0.026375662535429, -0.02562667429447174, -0.02487768605351448, -0.02412869781255722, -0.02337970957159996, -0.02263072319328785, -0.02188173495233059, -0.02113274671137333, -0.020383760333061218, -0.019634772092103958, -0.018885783851146698, -0.018136797472834587, -0.017387809231877327, -0.016638822853565216, -0.015889834612607956, -0.015140846371650696, -0.01439185906201601, -0.013642871752381325, -0.012893883511424065, -0.012144897133111954, -0.011395909823477268, -0.010646921582520008, -0.009897934272885323, -0.009148946031928062, -0.008399958722293377, -0.007650971412658691, -0.006901983637362719, -0.006152994930744171, -0.005404007155448198, -0.0046550193801522255, -0.00390603207051754, -0.003157044295221567, -0.0024080565199255943, -0.0016590692102909088, -0.000910081434994936, -0.00016109272837638855, 0.0005878949305042624, 0.0013368825893849134, 0.0020858701318502426, 0.0028348579071462154, 0.0035838456824421883, 0.004332832992076874, 0.005081820767372847, 0.005830807611346245, 0.006579795386642218, 0.0073287831619381905, 0.008077770471572876, 0.008826758712530136, 0.009575746022164822, 0.010324733331799507, 0.011073721572756767, 0.011822708882391453, 0.012571696192026138, 0.013320684432983398, 0.014069671742618084, 0.01481865905225277, 0.01556764729321003, 0.01631663367152214, 0.0170656219124794, 0.01781461015343666]}, "gradients/conv2.bias": {"_type": "histogram", "values": [1.0, 1.0, 0.0, 0.0, 0.0, 0.0, 0.0, 0.0, 0.0, 0.0, 0.0, 0.0, 0.0, 0.0, 1.0, 0.0, 0.0, 0.0, 0.0, 2.0, 0.0, 1.0, 0.0, 0.0, 0.0, 0.0, 1.0, 0.0, 0.0, 0.0, 0.0, 3.0, 0.0, 0.0, 0.0, 0.0, 0.0, 0.0, 1.0, 0.0, 0.0, 0.0, 0.0, 0.0, 0.0, 1.0, 0.0, 0.0, 0.0, 0.0, 0.0, 0.0, 1.0, 1.0, 0.0, 0.0, 0.0, 0.0, 1.0, 0.0, 0.0, 0.0, 0.0, 1.0], "bins": [-0.006875493563711643, -0.006682572420686483, -0.0064896512776613235, -0.006296729668974876, -0.006103808525949717, -0.005910887382924557, -0.00571796577423811, -0.00552504463121295, -0.00533212348818779, -0.00513920234516263, -0.00494628120213747, -0.004753359593451023, -0.004560438450425863, -0.004367517307400703, -0.004174595698714256, -0.0039816745556890965, -0.0037887534126639366, -0.0035958322696387768, -0.0034029108937829733, -0.00320998951792717, -0.00301706837490201, -0.00282414723187685, -0.0026312258560210466, -0.002438304480165243, -0.0022453833371400833, -0.0020524621941149235, -0.00185954081825912, -0.0016666195588186383, -0.0014736982993781567, -0.001280777039937675, -0.0010878557804971933, -0.0008949345210567117, -0.0007020127959549427, -0.000509091536514461, -0.0003161702770739794, -0.00012324901763349771, 6.967224180698395e-05, 0.0002625935012474656, 0.0004555147606879473, 0.0006484360201284289, 0.0008413572795689106, 0.0010342785390093923, 0.001227199798449874, 0.0014201210578903556, 0.0016130423173308372, 0.001805963576771319, 0.0019988848362118006, 0.002191806212067604, 0.002384727355092764, 0.0025776484981179237, 0.0027705698739737272, 0.0029634912498295307, 0.0031564123928546906, 0.0033493335358798504, 0.003542254911735654, 0.0037351762875914574, 0.003928097430616617, 0.004121018573641777, 0.004313940182328224, 0.004506861325353384, 0.004699782468378544, 0.004892703611403704, 0.0050856247544288635, 0.005278546363115311, 0.0054714675061404705]}, "gradients/conv1.weight": {"_type": "histogram", "values": [2.0, 1.0, 0.0, 3.0, 3.0, 4.0, 2.0, 5.0, 5.0, 4.0, 1.0, 2.0, 2.0, 4.0, 3.0, 4.0, 4.0, 3.0, 3.0, 4.0, 8.0, 2.0, 6.0, 2.0, 3.0, 2.0, 5.0, 4.0, 7.0, 3.0, 6.0, 5.0, 2.0, 0.0, 1.0, 3.0, 2.0, 1.0, 2.0, 3.0, 2.0, 0.0, 2.0, 2.0, 2.0, 0.0, 1.0, 1.0, 0.0, 2.0, 1.0, 0.0, 1.0, 0.0, 1.0, 2.0, 2.0, 0.0, 1.0, 0.0, 1.0, 1.0, 1.0, 1.0], "bins": [-0.01332825142890215, -0.012796142138540745, -0.01226403284817934, -0.011731923557817936, -0.011199814267456532, -0.010667704977095127, -0.010135594755411148, -0.009603485465049744, -0.00907137617468834, -0.008539266884326935, -0.00800715759396553, -0.007475048303604126, -0.0069429390132427216, -0.006410829722881317, -0.005878719966858625, -0.005346610676497221, -0.004814501851797104, -0.0042823925614356995, -0.003750283271074295, -0.003218173747882247, -0.0026860644575208426, -0.002153955167159438, -0.00162184564396739, -0.0010897363536059856, -0.0005576265975832939, -2.5517249014228582e-05, 0.0005065920995548368, 0.001038701506331563, 0.0015708107966929674, 0.002102920087054372, 0.00263502961024642, 0.0031671389006078243, 0.003699248656630516, 0.0042313579469919205, 0.004763467237353325, 0.005295576527714729, 0.005827685818076134, 0.006359795108437538, 0.00689190486446023, 0.007424014154821634, 0.007956122979521751, 0.008488232269883156, 0.00902034156024456, 0.009552450850605965, 0.010084560140967369, 0.010616669431328773, 0.011148778721690178, 0.011680888012051582, 0.012212998233735561, 0.012745107524096966, 0.01327721681445837, 0.013809326104819775, 0.014341435395181179, 0.014873544685542583, 0.015405654907226562, 0.015937764197587967, 0.01646987348794937, 0.017001982778310776, 0.01753409206867218, 0.018066201359033585, 0.01859831064939499, 0.019130419939756393, 0.019662529230117798, 0.020194638520479202, 0.020726747810840607]}, "gradients/conv1.bias": {"_type": "histogram", "values": [1.0, 0.0, 0.0, 0.0, 0.0, 0.0, 0.0, 0.0, 0.0, 0.0, 1.0, 0.0, 0.0, 0.0, 0.0, 0.0, 0.0, 0.0, 0.0, 0.0, 0.0, 1.0, 0.0, 0.0, 0.0, 0.0, 0.0, 0.0, 0.0, 0.0, 0.0, 0.0, 1.0, 0.0, 0.0, 0.0, 0.0, 0.0, 0.0, 0.0, 0.0, 0.0, 0.0, 0.0, 0.0, 0.0, 0.0, 0.0, 0.0, 0.0, 1.0, 0.0, 0.0, 0.0, 0.0, 0.0, 0.0, 0.0, 0.0, 0.0, 0.0, 0.0, 0.0, 1.0], "bins": [-0.021257156506180763, -0.020566456019878387, -0.019875753670930862, -0.019185053184628487, -0.01849435269832611, -0.017803650349378586, -0.01711294986307621, -0.016422249376773834, -0.01573154702782631, -0.015040845610201359, -0.014350145123898983, -0.013659443706274033, -0.012968743219971657, -0.012278041802346706, -0.011587340384721756, -0.01089663989841938, -0.010205939412117004, -0.009515237994492054, -0.008824537508189678, -0.008133836090564728, -0.007443135138601065, -0.006752434186637402, -0.006061732769012451, -0.005371031817048788, -0.00468032993376255, -0.003989628981798887, -0.0032989277970045805, -0.0026082266122102737, -0.0019175256602466106, -0.0012268247082829475, -0.0005361232906579971, 0.00015457766130566597, 0.0008452795445919037, 0.0015359806129708886, 0.0022266816813498735, 0.0029173828661441803, 0.0036080838181078434, 0.0042987847700715065, 0.004989486187696457, 0.00568018713966012, 0.0063708871603012085, 0.007061588112264872, 0.007752289064228535, 0.008442990481853485, 0.009133690968155861, 0.009824392385780811, 0.010515093803405762, 0.011205794289708138, 0.011896496638655663, 0.012587198056280613, 0.013277898542582989, 0.01396859996020794, 0.014659300446510315, 0.015350001864135265, 0.016040703281760216, 0.01673140376806259, 0.017422106117010117, 0.018112806603312492, 0.018803508952260017, 0.019494209438562393, 0.02018490992486477, 0.020875610411167145, 0.02156631276011467, 0.022257013246417046, 0.02294771373271942]}, "_wandb": {"runtime": 60}}