{"loss": 0.5155107975006104, "_runtime": 65, "_timestamp": 1641468536, "_step": 69, "validation_accuracy": 0.9355999827384949, "gradients/fc3.bias": {"_type": "histogram", "values": [1.0, 0.0, 0.0, 0.0, 0.0, 0.0, 0.0, 0.0, 0.0, 0.0, 0.0, 0.0, 0.0, 0.0, 0.0, 0.0, 0.0, 0.0, 0.0, 0.0, 0.0, 0.0, 0.0, 0.0, 0.0, 0.0, 0.0, 0.0, 0.0, 0.0, 0.0, 1.0, 0.0, 0.0, 0.0, 2.0, 3.0, 0.0, 0.0, 1.0, 0.0, 0.0, 0.0, 0.0, 1.0, 0.0, 0.0, 0.0, 0.0, 0.0, 0.0, 0.0, 0.0, 0.0, 0.0, 0.0, 0.0, 0.0, 0.0, 0.0, 0.0, 0.0, 0.0, 1.0], "bins": [-0.012174432165920734, -0.011835398152470589, -0.011496364139020443, -0.011157330125570297, -0.010818296112120152, -0.010479262098670006, -0.010140229016542435, -0.009801194071769714, -0.009462160989642143, -0.009123126976191998, -0.008784092962741852, -0.008445058949291706, -0.00810602493584156, -0.007766990922391415, -0.007427957374602556, -0.0070889233611524105, -0.0067498888820409775, -0.006410854868590832, -0.006071820855140686, -0.00573278684169054, -0.005393752828240395, -0.005054718814790249, -0.0047156852670013905, -0.004376651253551245, -0.004037617705762386, -0.0036985836923122406, -0.003359549678862095, -0.003020515898242593, -0.002681481884792447, -0.0023424478713423014, -0.0020034140907227993, -0.0016643800772726536, -0.0013253455981612206, -0.0009863115847110748, -0.0006472776876762509, -0.00030824379064142704, 3.079022280871868e-05, 0.0003698242362588644, 0.0007088580168783665, 0.0010478920303285122, 0.0013869265094399452, 0.001725960522890091, 0.0020649945363402367, 0.0024040283169597387, 0.0027430623304098845, 0.00308209634386003, 0.0034211301244795322, 0.003760164137929678, 0.004099197685718536, 0.004438231699168682, 0.004777265712618828, 0.0051162997260689735, 0.005455333739519119, 0.005794367752969265, 0.006133401300758123, 0.006472435314208269, 0.006811469327658415, 0.0071505033411085606, 0.007489537354558706, 0.007828570902347565, 0.00816760491579771, 0.008506638929247856, 0.008845672942698002, 0.009184706956148148, 0.009523740969598293]}, "gradients/fc3.weight": {"_type": "histogram", "values": [1.0, 0.0, 0.0, 0.0, 0.0, 0.0, 0.0, 0.0, 0.0, 0.0, 0.0, 0.0, 0.0, 0.0, 1.0, 0.0, 0.0, 0.0, 0.0, 0.0, 0.0, 0.0, 0.0, 0.0, 0.0, 0.0, 0.0, 0.0, 1.0, 1.0, 0.0, 0.0, 0.0, 3.0, 0.0, 814.0, 8.0, 2.0, 3.0, 0.0, 1.0, 1.0, 1.0, 0.0, 1.0, 1.0, 0.0, 0.0, 0.0, 0.0, 0.0, 0.0, 0.0, 0.0, 0.0, 0.0, 0.0, 0.0, 0.0, 0.0, 0.0, 0.0, 0.0, 1.0], "bins": [-0.18301177024841309, -0.1778956651687622, -0.17277956008911133, -0.16766346991062164, -0.16254736483097076, -0.15743125975131989, -0.152315154671669, -0.14719904959201813, -0.14208295941352844, -0.13696685433387756, -0.13185074925422668, -0.126734659075737, -0.12161855399608612, -0.11650244891643524, -0.11138634383678436, -0.10627023875713348, -0.1011541336774826, -0.09603802859783173, -0.09092193096876144, -0.08580582588911057, -0.08068972826004028, -0.0755736231803894, -0.07045751810073853, -0.06534141302108765, -0.060225315392017365, -0.055109214037656784, -0.049993112683296204, -0.044877007603645325, -0.039760906249284744, -0.034644804894924164, -0.029528701677918434, -0.024412598460912704, -0.01929648220539093, -0.014180379919707775, -0.00906427763402462, -0.003948175348341465, 0.00116792693734169, 0.0062840282917022705, 0.011400131508708, 0.01651623472571373, 0.02163233608007431, 0.02674843743443489, 0.03186453878879547, 0.03698064386844635, 0.04209674522280693, 0.04721284657716751, 0.05232895165681839, 0.05744505301117897, 0.06256115436553955, 0.06767725944519043, 0.07279335707426071, 0.07790946215391159, 0.08302555978298187, 0.08814166486263275, 0.09325776994228363, 0.09837387502193451, 0.10348997265100479, 0.10860607773065567, 0.11372217535972595, 0.11883828043937683, 0.12395438551902771, 0.1290704905986786, 0.13418658077716827, 0.13930268585681915, 0.14441879093647003]}, "gradients/fc2.bias": {"_type": "histogram", "values": [1.0, 0.0, 0.0, 0.0, 0.0, 0.0, 0.0, 0.0, 0.0, 0.0, 0.0, 0.0, 0.0, 0.0, 0.0, 0.0, 0.0, 0.0, 0.0, 0.0, 0.0, 0.0, 0.0, 0.0, 0.0, 0.0, 0.0, 0.0, 0.0, 0.0, 0.0, 1.0, 0.0, 0.0, 0.0, 9.0, 69.0, 2.0, 1.0, 0.0, 0.0, 0.0, 0.0, 0.0, 0.0, 0.0, 0.0, 0.0, 0.0, 0.0, 0.0, 0.0, 0.0, 0.0, 0.0, 0.0, 0.0, 0.0, 0.0, 0.0, 0.0, 0.0, 0.0, 1.0], "bins": [-0.0046688164584338665, -0.004539819899946451, -0.004410823341459036, -0.0042818267829716206, -0.004152830224484205, -0.00402383366599679, -0.0038948371075093746, -0.0037658405490219593, -0.003636843990534544, -0.0035078474320471287, -0.0033788508735597134, -0.003249854315072298, -0.0031208577565848827, -0.0029918611980974674, -0.002862864639610052, -0.002733868081122637, -0.002604871755465865, -0.00247587519697845, -0.0023468786384910345, -0.002217882080003619, -0.002088885521516204, -0.0019598889630287886, -0.001830892520956695, -0.0017018959624692798, -0.0015728995203971863, -0.001443902961909771, -0.0013149064034223557, -0.0011859098449349403, -0.001056913286447525, -0.0009279167861677706, -0.0007989202858880162, -0.0006699237274006009, -0.0005409272853285074, -0.0004119307268410921, -0.00028293419745750725, -0.0001539376680739224, -2.4941109586507082e-05, 0.00010405544890090823, 0.00023305194918066263, 0.00036204850766807795, 0.0004910451825708151, 0.0006200417410582304, 0.0007490382995456457, 0.0008780347998254001, 0.0010070314165204763, 0.0011360279750078917, 0.0012650244170799851, 0.0013940209755674005, 0.001523017417639494, 0.0016520139761269093, 0.0017810105346143246, 0.0019100070931017399, 0.002039003651589155, 0.0021680002100765705, 0.002296996768563986, 0.002425993327051401, 0.0025549898855388165, 0.0026839864440262318, 0.002812983002513647, 0.0029419795610010624, 0.0030709761194884777, 0.003199972677975893, 0.0033289692364633083, 0.0034579657949507236, 0.0035869621206074953]}, "gradients/fc2.weight": {"_type": "histogram", "values": [1.0, 0.0, 0.0, 0.0, 0.0, 0.0, 0.0, 0.0, 0.0, 0.0, 0.0, 0.0, 0.0, 0.0, 0.0, 2.0, 0.0, 0.0, 0.0, 0.0, 0.0, 0.0, 0.0, 1.0, 3.0, 0.0, 0.0, 2.0, 0.0, 1.0, 1.0, 0.0, 3.0, 1.0, 9.0, 76.0, 9958.0, 3.0, 5.0, 2.0, 2.0, 2.0, 1.0, 1.0, 1.0, 1.0, 1.0, 0.0, 0.0, 0.0, 1.0, 0.0, 1.0, 0.0, 0.0, 0.0, 0.0, 0.0, 0.0, 0.0, 0.0, 0.0, 0.0, 1.0], "bins": [-0.08524101227521896, -0.08287881314754486, -0.08051662147045135, -0.07815442234277725, -0.07579223066568375, -0.07343003153800964, -0.07106783986091614, -0.06870564073324203, -0.06634344905614853, -0.06398124992847443, -0.06161905825138092, -0.059256862848997116, -0.05689466744661331, -0.05453247204422951, -0.0521702766418457, -0.0498080775141716, -0.047445882111787796, -0.04508368670940399, -0.04272149130702019, -0.04035929590463638, -0.03799710050225258, -0.035634905099868774, -0.03327270597219467, -0.030910512432456017, -0.028548315167427063, -0.02618611976504326, -0.023823924362659454, -0.02146172896027565, -0.019099533557891846, -0.01673733815550804, -0.014375140890479088, -0.012012945488095284, -0.009650751948356628, -0.007288556545972824, -0.0049263606779277325, -0.002564164809882641, -0.00020196940749883652, 0.002160225994884968, 0.004522422328591347, 0.006884617730975151, 0.009246811270713806, 0.01160900667309761, 0.013971202075481415, 0.01633339747786522, 0.018695592880249023, 0.021057788282632828, 0.02341998554766178, 0.025782180950045586, 0.02814437821507454, 0.030506573617458344, 0.03286876901984215, 0.03523096442222595, 0.037593159824609756, 0.03995535522699356, 0.042317554354667664, 0.04467974603176117, 0.04704194515943527, 0.04940414056181908, 0.05176633596420288, 0.054128531366586685, 0.05649072676897049, 0.058852922171354294, 0.0612151175737381, 0.0635773167014122, 0.0659395083785057]}, "gradients/fc1.bias": {"_type": "histogram", "values": [1.0, 0.0, 0.0, 0.0, 0.0, 0.0, 0.0, 0.0, 0.0, 0.0, 0.0, 0.0, 0.0, 0.0, 0.0, 0.0, 0.0, 1.0, 0.0, 0.0, 1.0, 0.0, 1.0, 0.0, 0.0, 1.0, 1.0, 0.0, 1.0, 0.0, 0.0, 3.0, 99.0, 3.0, 2.0, 1.0, 0.0, 0.0, 0.0, 1.0, 1.0, 0.0, 0.0, 0.0, 0.0, 0.0, 0.0, 0.0, 0.0, 0.0, 0.0, 0.0, 0.0, 0.0, 0.0, 0.0, 0.0, 0.0, 1.0, 1.0, 0.0, 0.0, 0.0, 1.0], "bins": [-0.004461904056370258, -0.004325543530285358, -0.004189183469861746, -0.004052822943776846, -0.003916462883353233, -0.0037801023572683334, -0.003643742064014077, -0.003507381770759821, -0.0033710214775055647, -0.0032346611842513084, -0.003098300890997052, -0.002961940597742796, -0.002825580071657896, -0.0026892200112342834, -0.0025528594851493835, -0.0024164991918951273, -0.002280138898640871, -0.002143778605386615, -0.0020074183121323586, -0.0018710579024627805, -0.0017346976092085242, -0.001598337315954268, -0.00146197690628469, -0.0013256166130304337, -0.0011892563197761774, -0.0010528960265219212, -0.000916535675060004, -0.0007801753235980868, -0.0006438150303438306, -0.0005074547370895743, -0.0003710943856276572, -0.00023473403416574, -9.837374091148376e-05, 3.798658144660294e-05, 0.00017434690380468965, 0.00031070722616277635, 0.00044706754852086306, 0.0005834278417751193, 0.0007197881932370365, 0.0008561485446989536, 0.0009925088379532099, 0.0011288691312074661, 0.0012652294244617224, 0.0014015898341313004, 0.0015379501273855567, 0.001674310420639813, 0.001810670830309391, 0.0019470311235636473, 0.0020833914168179035, 0.0022197517100721598, 0.002356112003326416, 0.0024924722965806723, 0.0026288325898349285, 0.0027651931159198284, 0.0029015534091740847, 0.003037913702428341, 0.003174273995682597, 0.0033106342889368534, 0.0034469945821911097, 0.003583354875445366, 0.003719715401530266, 0.0038560754619538784, 0.003992435988038778, 0.004128796048462391, 0.004265156574547291]}, "gradients/fc1.weight": {"_type": "histogram", "values": [1.0, 0.0, 0.0, 2.0, 1.0, 0.0, 2.0, 0.0, 0.0, 0.0, 2.0, 2.0, 1.0, 1.0, 2.0, 3.0, 1.0, 1.0, 4.0, 5.0, 4.0, 7.0, 10.0, 6.0, 17.0, 14.0, 27.0, 26.0, 34.0, 25.0, 44.0, 121.0, 29662.0, 393.0, 76.0, 59.0, 33.0, 24.0, 8.0, 14.0, 3.0, 6.0, 4.0, 9.0, 6.0, 6.0, 5.0, 4.0, 5.0, 7.0, 7.0, 3.0, 1.0, 4.0, 4.0, 2.0, 2.0, 4.0, 0.0, 2.0, 3.0, 0.0, 0.0, 1.0], "bins": [-0.020021643489599228, -0.01941174827516079, -0.01880185306072235, -0.018191959708929062, -0.017582064494490623, -0.016972169280052185, -0.016362274065613747, -0.015752378851175308, -0.015142484568059444, -0.014532589353621006, -0.013922695070505142, -0.013312799856066704, -0.012702904641628265, -0.012093010358512402, -0.011483115144073963, -0.0108732208609581, -0.010263325646519661, -0.009653430432081223, -0.009043536148965359, -0.00843364093452692, -0.007823746651411057, -0.007213851436972618, -0.00660395622253418, -0.005994061473757029, -0.0053841667249798775, -0.004774271976202726, -0.004164377227425575, -0.003554482012987137, -0.0029445872642099857, -0.0023346925154328346, -0.0017247975338250399, -0.001114902552217245, -0.0005050096660852432, 0.00010488519910722971, 0.0007147800642997026, 0.0013246749294921756, 0.0019345697946846485, 0.0025444645434617996, 0.0031543595250695944, 0.003764254506677389, 0.00437414925545454, 0.004984044004231691, 0.0055939387530088425, 0.006203833967447281, 0.006813728716224432, 0.007423623465001583, 0.008033518679440022, 0.008643412962555885, 0.009253308176994324, 0.009863203391432762, 0.010473097674548626, 0.011082992888987064, 0.011692887172102928, 0.012302782386541367, 0.012912677600979805, 0.013522572815418243, 0.014132467098534107, 0.014742362312972546, 0.01535225659608841, 0.015962151810526848, 0.016572047024965286, 0.017181940376758575, 0.017791835591197014, 0.018401730805635452, 0.01901162602007389]}, "gradients/conv2.weight": {"_type": "histogram", "values": [4.0, 0.0, 2.0, 2.0, 4.0, 1.0, 4.0, 4.0, 5.0, 3.0, 8.0, 8.0, 15.0, 17.0, 20.0, 33.0, 60.0, 221.0, 1696.0, 130.0, 56.0, 21.0, 19.0, 16.0, 15.0, 6.0, 5.0, 5.0, 4.0, 3.0, 3.0, 2.0, 1.0, 1.0, 0.0, 0.0, 0.0, 0.0, 0.0, 1.0, 0.0, 0.0, 0.0, 0.0, 0.0, 0.0, 0.0, 0.0, 0.0, 0.0, 0.0, 1.0, 1.0, 1.0, 0.0, 1.0, 0.0, 0.0, 0.0, 0.0, 0.0, 0.0, 0.0, 1.0], "bins": [-0.03645993396639824, -0.03446768596768379, -0.032475441694259644, -0.030483193695545197, -0.0284909475594759, -0.0264987014234066, -0.024506453424692154, -0.022514207288622856, -0.02052196115255356, -0.01852971501648426, -0.016537468880414963, -0.014545220881700516, -0.012552974745631218, -0.01056072860956192, -0.008568481542170048, -0.006576234474778175, -0.0045839883387088776, -0.0025917417369782925, -0.0005994951352477074, 0.0013927514664828777, 0.003384998068213463, 0.005377244204282761, 0.007369491271674633, 0.009361738339066505, 0.011353984475135803, 0.013346230611205101, 0.015338477678596973, 0.017330724745988846, 0.019322970882058144, 0.02131521701812744, 0.02330746501684189, 0.025299711152911186, 0.027291961014270782, 0.02928420715034008, 0.03127645328640938, 0.033268701285123825, 0.035260945558547974, 0.03725319355726242, 0.03924544155597687, 0.041237689554691315, 0.04322993382811546, 0.04522218182682991, 0.04721442610025406, 0.049206674098968506, 0.05119892209768295, 0.0531911663711071, 0.05518341436982155, 0.0571756586432457, 0.059167906641960144, 0.06116015464067459, 0.06315240263938904, 0.06514464318752289, 0.06713689118623734, 0.06912913918495178, 0.07112138718366623, 0.07311363518238068, 0.07510587573051453, 0.07709812372922897, 0.07909037172794342, 0.08108261227607727, 0.08307486027479172, 0.08506710827350616, 0.08705935627222061, 0.08905160427093506, 0.0910438522696495]}, "gradients/conv2.bias": {"_type": "histogram", "values": [1.0, 0.0, 0.0, 0.0, 0.0, 0.0, 0.0, 0.0, 0.0, 0.0, 0.0, 0.0, 0.0, 0.0, 1.0, 1.0, 0.0, 0.0, 0.0, 0.0, 0.0, 1.0, 0.0, 0.0, 0.0, 0.0, 1.0, 0.0, 0.0, 0.0, 0.0, 0.0, 0.0, 4.0, 0.0, 0.0, 0.0, 0.0, 0.0, 0.0, 0.0, 1.0, 1.0, 0.0, 2.0, 0.0, 0.0, 1.0, 0.0, 0.0, 0.0, 0.0, 0.0, 0.0, 0.0, 1.0, 0.0, 0.0, 0.0, 0.0, 0.0, 0.0, 0.0, 1.0], "bins": [-0.024807095527648926, -0.024063214659690857, -0.023319333791732788, -0.02257545106112957, -0.0218315701931715, -0.021087689325213432, -0.020343806594610214, -0.019599925726652145, -0.018856044858694077, -0.018112163990736008, -0.01736828312277794, -0.01662440039217472, -0.015880519524216652, -0.015136638656258583, -0.01439275685697794, -0.013648875057697296, -0.012904994189739227, -0.012161113321781158, -0.011417231522500515, -0.010673349723219872, -0.009929468855261803, -0.009185587987303734, -0.00844170618802309, -0.007697824854403734, -0.006953943520784378, -0.006210062187165022, -0.005466180853545666, -0.00472229951992631, -0.003978418186306953, -0.0032345368526875973, -0.002490655519068241, -0.001746774185448885, -0.0010028909891843796, -0.0002590096555650234, 0.00048487167805433273, 0.0012287530116736889, 0.001972634345293045, 0.002716515678912401, 0.0034603970125317574, 0.0042042783461511135, 0.00494815967977047, 0.005692041013389826, 0.006435922347009182, 0.007179803680628538, 0.007923685014247894, 0.008667565882205963, 0.009411447681486607, 0.01015532948076725, 0.010899210348725319, 0.011643091216683388, 0.012386973015964031, 0.013130854815244675, 0.013874735683202744, 0.014618616551160812, 0.015362498350441456, 0.0161063801497221, 0.016850261017680168, 0.017594141885638237, 0.018338024616241455, 0.019081905484199524, 0.019825786352157593, 0.02056966722011566, 0.02131354808807373, 0.02205743081867695, 0.022801311686635017]}, "gradients/conv1.weight": {"_type": "histogram", "values": [2.0, 1.0, 1.0, 0.0, 1.0, 1.0, 0.0, 2.0, 2.0, 1.0, 0.0, 1.0, 2.0, 1.0, 0.0, 3.0, 3.0, 1.0, 4.0, 4.0, 3.0, 4.0, 7.0, 6.0, 3.0, 4.0, 1.0, 5.0, 6.0, 7.0, 10.0, 1.0, 6.0, 6.0, 2.0, 1.0, 3.0, 4.0, 4.0, 3.0, 0.0, 1.0, 0.0, 2.0, 1.0, 3.0, 8.0, 3.0, 2.0, 4.0, 2.0, 1.0, 2.0, 1.0, 1.0, 0.0, 1.0, 0.0, 1.0, 0.0, 0.0, 0.0, 0.0, 1.0], "bins": [-0.11991751939058304, -0.11555282026529312, -0.1111881285905838, -0.10682342946529388, -0.10245873034000397, -0.09809403121471405, -0.09372933954000473, -0.08936464041471481, -0.0849999487400055, -0.08063524961471558, -0.07627055794000626, -0.07190585881471634, -0.06754115968942642, -0.0631764680147171, -0.058811768889427185, -0.05444706976413727, -0.05008237063884735, -0.04571767523884773, -0.041352976113557816, -0.0369882807135582, -0.03262358158826828, -0.02825888618826866, -0.023894190788269043, -0.019529493525624275, -0.015164799988269806, -0.010800102725625038, -0.006435406394302845, -0.002070710062980652, 0.002293987199664116, 0.006658684462308884, 0.011023379862308502, 0.01538807712495327, 0.01975277066230774, 0.024117467924952507, 0.028482165187597275, 0.03284686058759689, 0.03721155971288681, 0.04157625511288643, 0.04594095051288605, 0.050305649638175964, 0.05467034876346588, 0.0590350441634655, 0.06339973956346512, 0.06776443868875504, 0.07212913781404495, 0.07649382948875427, 0.08085852861404419, 0.0852232277393341, 0.08958791941404343, 0.09395261853933334, 0.09831731021404266, 0.10268200933933258, 0.1070467084646225, 0.11141140758991241, 0.11577609926462173, 0.12014079838991165, 0.12450549006462097, 0.1288701891899109, 0.1332348883152008, 0.13759958744049072, 0.14196427166461945, 0.14632897078990936, 0.15069366991519928, 0.1550583690404892, 0.1594230681657791]}, "gradients/conv1.bias": {"_type": "histogram", "values": [1.0, 1.0, 0.0, 1.0, 0.0, 0.0, 0.0, 0.0, 0.0, 0.0, 0.0, 0.0, 0.0, 0.0, 0.0, 0.0, 0.0, 0.0, 0.0, 0.0, 0.0, 0.0, 0.0, 0.0, 0.0, 0.0, 0.0, 0.0, 0.0, 0.0, 0.0, 0.0, 0.0, 0.0, 0.0, 0.0, 1.0, 0.0, 0.0, 0.0, 0.0, 0.0, 0.0, 0.0, 0.0, 0.0, 0.0, 0.0, 0.0, 0.0, 0.0, 0.0, 0.0, 1.0, 0.0, 0.0, 0.0, 0.0, 0.0, 0.0, 0.0, 0.0, 0.0, 1.0], "bins": [-0.0928521677851677, -0.0905948206782341, -0.08833746612071991, -0.08608011901378632, -0.08382276445627213, -0.08156541734933853, -0.07930806279182434, -0.07705071568489075, -0.07479336112737656, -0.07253601402044296, -0.07027865946292877, -0.06802131235599518, -0.06576395779848099, -0.0635066106915474, -0.0612492561340332, -0.05899190902709961, -0.05673455819487572, -0.054477207362651825, -0.05221985653042793, -0.04996250569820404, -0.04770515486598015, -0.045447804033756256, -0.04319045692682266, -0.04093310236930847, -0.03867575526237488, -0.036418404430150986, -0.034161053597927094, -0.0319037027657032, -0.02964635193347931, -0.027389001101255417, -0.025131652131676674, -0.02287430129945278, -0.020616944879293442, -0.01835959404706955, -0.016102243214845657, -0.01384489331394434, -0.011587542481720448, -0.009330191649496555, -0.007072841748595238, -0.0048154909163713455, -0.002558138221502304, -0.0003007876221090555, 0.001956562977284193, 0.004213913343846798, 0.00647126417607069, 0.008728615008294582, 0.0109859649091959, 0.013243315741419792, 0.015500664710998535, 0.017758015543222427, 0.02001536637544632, 0.022272717207670212, 0.024530068039894104, 0.026787418872117996, 0.02904476784169674, 0.03130211681127548, 0.03355947136878967, 0.035816822201013565, 0.03807417303323746, 0.04033152386546135, 0.04258887469768524, 0.044846225529909134, 0.047103576362133026, 0.04936092346906662, 0.05161827430129051]}, "_wandb": {"runtime": 64}}