{"loss": 0.14968864619731903, "_runtime": 52, "_timestamp": 1641467851, "_step": 69, "validation_accuracy": 0.9602000117301941, "gradients/fc3.bias": {"_type": "histogram", "values": [1.0, 0.0, 0.0, 0.0, 0.0, 1.0, 0.0, 0.0, 0.0, 0.0, 0.0, 0.0, 0.0, 0.0, 0.0, 0.0, 0.0, 0.0, 0.0, 0.0, 0.0, 0.0, 0.0, 0.0, 0.0, 0.0, 0.0, 1.0, 1.0, 0.0, 0.0, 3.0, 0.0, 0.0, 0.0, 0.0, 0.0, 1.0, 0.0, 0.0, 0.0, 0.0, 0.0, 1.0, 0.0, 0.0, 0.0, 0.0, 0.0, 0.0, 0.0, 0.0, 0.0, 0.0, 0.0, 0.0, 0.0, 0.0, 0.0, 0.0, 0.0, 0.0, 0.0, 1.0], "bins": [-0.003056757152080536, -0.002955328207463026, -0.00285389949567616, -0.00275247055105865, -0.002651041839271784, -0.002549612894654274, -0.002448183950036764, -0.002346755238249898, -0.0022453265264630318, -0.002143897581845522, -0.0020424688700586557, -0.001941039925441146, -0.0018396112136542797, -0.0017381822690367699, -0.0016367534408345819, -0.0015353246126323938, -0.001433895668014884, -0.001332466839812696, -0.001231038011610508, -0.0011296090669929981, -0.001028180355206132, -0.000926751468796283, -0.0008253225823864341, -0.0007238937541842461, -0.0006224648095667362, -0.0005210359813645482, -0.00041960712405852973, -0.00031817826675251126, -0.00021674943855032325, -0.00011532061034813523, -1.3891723938286304e-05, 8.753710426390171e-05, 0.00018896604888141155, 0.00029039487708359957, 0.00039182373438961804, 0.0004932525916956365, 0.0005946814198978245, 0.0006961102481000125, 0.0007975391345098615, 0.0008989679627120495, 0.0010003966744989157, 0.0011018255027011037, 0.0012032543309032917, 0.0013046832755208015, 0.0014061119873076677, 0.0015075409319251776, 0.0016089697601273656, 0.0017103985883295536, 0.0018118275329470634, 0.0019132563611492515, 0.0020146851893514395, 0.0021161141339689493, 0.0022175428457558155, 0.0023189717903733253, 0.002420400734990835, 0.0025218294467777014, 0.0026232581585645676, 0.0027246871031820774, 0.0028261158149689436, 0.0029275447595864534, 0.0030289734713733196, 0.0031304024159908295, 0.0032318313606083393, 0.0033332600723952055, 0.0034346890170127153]}, "gradients/fc3.weight": {"_type": "histogram", "values": [1.0, 0.0, 0.0, 1.0, 0.0, 0.0, 0.0, 0.0, 0.0, 1.0, 0.0, 0.0, 1.0, 0.0, 1.0, 0.0, 3.0, 2.0, 3.0, 4.0, 0.0, 1.0, 3.0, 3.0, 4.0, 5.0, 3.0, 5.0, 7.0, 6.0, 6.0, 3.0, 5.0, 13.0, 23.0, 72.0, 492.0, 55.0, 46.0, 8.0, 11.0, 10.0, 3.0, 1.0, 5.0, 2.0, 1.0, 5.0, 3.0, 4.0, 2.0, 2.0, 3.0, 2.0, 4.0, 1.0, 0.0, 0.0, 2.0, 0.0, 1.0, 0.0, 0.0, 1.0], "bins": [-0.02542106807231903, -0.02472008764743805, -0.024019107222557068, -0.023318126797676086, -0.022617148235440254, -0.021916167810559273, -0.02121518738567829, -0.02051420696079731, -0.019813228398561478, -0.019112247973680496, -0.018411267548799515, -0.017710287123918533, -0.0170093085616827, -0.01630832813680172, -0.015607347711920738, -0.014906367287039757, -0.014205386862158775, -0.013504406437277794, -0.012803426943719387, -0.012102446518838406, -0.011401467025279999, -0.010700486600399017, -0.009999506175518036, -0.009298525750637054, -0.008597545325756073, -0.007896564900875092, -0.007195585407316685, -0.006494604982435703, -0.005793625023216009, -0.005092645063996315, -0.0043916646391153336, -0.0036906846798956394, -0.00298970565199852, -0.0022887256927788258, -0.001587745500728488, -0.0008867653086781502, -0.00018578534945845604, 0.0005151946097612381, 0.0012161750346422195, 0.0019171549938619137, 0.002618134021759033, 0.0033191139809787273, 0.0040200939401984215, 0.004721074365079403, 0.005422054324299097, 0.006123034283518791, 0.006824014708399773, 0.007524994667619467, 0.008225975558161736, 0.008926955983042717, 0.009627935476601124, 0.010328915901482105, 0.011029895395040512, 0.011730875819921494, 0.012431856244802475, 0.013132836669683456, 0.013833816163241863, 0.014534796588122845, 0.015235776081681252, 0.015936756506562233, 0.016637736931443214, 0.017338715493679047, 0.018039695918560028, 0.01874067634344101, 0.01944165676832199]}, "gradients/fc2.bias": {"_type": "histogram", "values": [1.0, 0.0, 0.0, 2.0, 0.0, 0.0, 1.0, 0.0, 1.0, 0.0, 1.0, 0.0, 1.0, 0.0, 0.0, 1.0, 1.0, 0.0, 1.0, 0.0, 1.0, 2.0, 0.0, 2.0, 2.0, 1.0, 2.0, 2.0, 1.0, 2.0, 2.0, 2.0, 7.0, 12.0, 7.0, 3.0, 2.0, 6.0, 1.0, 1.0, 1.0, 0.0, 1.0, 4.0, 0.0, 1.0, 2.0, 1.0, 0.0, 0.0, 1.0, 0.0, 0.0, 0.0, 1.0, 0.0, 0.0, 0.0, 1.0, 0.0, 1.0, 0.0, 0.0, 2.0], "bins": [-0.002367784036323428, -0.0022968000266700983, -0.002225815784186125, -0.002154831774532795, -0.0020838475320488214, -0.0020128635223954916, -0.00194187939632684, -0.0018708952702581882, -0.0017999111441895366, -0.001728927018120885, -0.0016579428920522332, -0.0015869587659835815, -0.0015159747563302517, -0.0014449905138462782, -0.0013740065041929483, -0.0013030223781242967, -0.001232038252055645, -0.0011610541259869933, -0.0010900699999183416, -0.00101908587384969, -0.0009481018059886992, -0.0008771176799200475, -0.0008061336120590568, -0.0007351494859904051, -0.0006641653599217534, -0.0005931812338531017, -0.00052219710778445, -0.0004512130399234593, -0.0003802289138548076, -0.00030924478778615594, -0.00023826069082133472, -0.0001672765938565135, -9.629270061850548e-05, -2.530858910176903e-05, 4.567552241496742e-05, 0.00011665963393170387, 0.0001876437454484403, 0.000258627871517092, 0.0003296119684819132, 0.00040059606544673443, 0.0004715801915153861, 0.0005425643175840378, 0.0006135484436526895, 0.0006845325115136802, 0.0007555166375823319, 0.0008265007636509836, 0.0008974848315119743, 0.000968468957580626, 0.0010394530836492777, 0.0011104372097179294, 0.001181421335786581, 0.0012524054618552327, 0.0013233895879238844, 0.0013943735975772142, 0.001465357723645866, 0.0015363418497145176, 0.0016073259757831693, 0.001678310101851821, 0.0017492942279204726, 0.0018202783539891243, 0.0018912623636424541, 0.0019622466061264277, 0.0020332306157797575, 0.002104214858263731, 0.002175198867917061]}, "gradients/fc2.weight": {"_type": "histogram", "values": [1.0, 2.0, 2.0, 0.0, 4.0, 0.0, 4.0, 0.0, 1.0, 3.0, 4.0, 3.0, 6.0, 4.0, 5.0, 7.0, 15.0, 15.0, 21.0, 19.0, 16.0, 26.0, 41.0, 32.0, 74.0, 98.0, 120.0, 173.0, 270.0, 512.0, 1322.0, 5337.0, 804.0, 373.0, 222.0, 144.0, 100.0, 70.0, 44.0, 27.0, 30.0, 23.0, 17.0, 15.0, 15.0, 13.0, 9.0, 5.0, 4.0, 2.0, 7.0, 2.0, 3.0, 4.0, 0.0, 1.0, 3.0, 1.0, 0.0, 1.0, 2.0, 1.0, 0.0, 1.0], "bins": [-0.017504438757896423, -0.016945142298936844, -0.016385845839977264, -0.015826549381017685, -0.01526725385338068, -0.0147079573944211, -0.014148660935461521, -0.013589365407824516, -0.013030068948864937, -0.012470772489905357, -0.011911476030945778, -0.011352179571986198, -0.010792884044349194, -0.010233587585389614, -0.009674291126430035, -0.00911499559879303, -0.008555698208510876, -0.007996401749551296, -0.007437105756253004, -0.006877809297293425, -0.0063185133039951324, -0.005759216845035553, -0.0051999203860759735, -0.004640624392777681, -0.004081327468156815, -0.0035220312420278788, -0.002962735015898943, -0.0024034385569393635, -0.0018441423308104277, -0.0012848461046814919, -0.0007255496457219124, -0.00016625365242362022, 0.00039304234087467194, 0.0009523386252112687, 0.0015116349095478654, 0.002070931252092123, 0.002630227478221059, 0.0031895237043499947, 0.003748820163309574, 0.004308116156607866, 0.0048674121499061584, 0.005426708608865738, 0.00598600460216403, 0.0065453010611236095, 0.007104597054421902, 0.007663893513381481, 0.00822318997234106, 0.008782485499978065, 0.00934178289026022, 0.009901079349219799, 0.010460375808179379, 0.011019671335816383, 0.011578967794775963, 0.012138264253735542, 0.012697560712695122, 0.013256857171654701, 0.01381615363061428, 0.01437545008957386, 0.01493474654853344, 0.015494043007493019, 0.0160533394664526, 0.01661263406276703, 0.01717193052172661, 0.017731226980686188, 0.018290523439645767]}, "gradients/fc1.bias": {"_type": "histogram", "values": [1.0, 0.0, 0.0, 0.0, 0.0, 1.0, 0.0, 0.0, 0.0, 1.0, 0.0, 0.0, 0.0, 0.0, 0.0, 1.0, 1.0, 1.0, 0.0, 1.0, 0.0, 0.0, 2.0, 2.0, 0.0, 2.0, 1.0, 2.0, 0.0, 3.0, 6.0, 5.0, 3.0, 6.0, 8.0, 9.0, 20.0, 6.0, 2.0, 3.0, 3.0, 4.0, 3.0, 3.0, 4.0, 0.0, 2.0, 4.0, 5.0, 0.0, 1.0, 0.0, 1.0, 1.0, 0.0, 0.0, 0.0, 1.0, 0.0, 0.0, 0.0, 0.0, 0.0, 1.0], "bins": [-0.0031634443439543247, -0.0030763207469135523, -0.0029891973827034235, -0.002902073785662651, -0.0028149501886218786, -0.00272782682441175, -0.0026407032273709774, -0.0025535798631608486, -0.002466456266120076, -0.0023793326690793037, -0.002292209304869175, -0.0022050857078284025, -0.00211796211078763, -0.0020308387465775013, -0.0019437151495367289, -0.0018565916689112782, -0.0017694680718705058, -0.0016823445912450552, -0.0015952209942042828, -0.0015080975135788321, -0.0014209740329533815, -0.001333850435912609, -0.0012467269552871585, -0.0011596034746617079, -0.0010724798776209354, -0.0009853563969954848, -0.0008982328581623733, -0.0008111093193292618, -0.0007239858387038112, -0.0006368622998706996, -0.0005497387610375881, -0.0004626152804121375, -0.0003754917997866869, -0.00028836829005740583, -0.00020124476577620953, -0.00011412124149501324, -2.699773176573217e-05, 6.01257779635489e-05, 0.00014724931679666042, 0.00023437279742211103, 0.00032149627804756165, 0.0004086197877768427, 0.0004957432975061238, 0.0005828668363392353, 0.0006699903169646859, 0.0007571138557977974, 0.000844237394630909, 0.0009313608752563596, 0.001018484472297132, 0.0011056079529225826, 0.001192731549963355, 0.0012798550305888057, 0.0013669785112142563, 0.0014541021082550287, 0.0015412255888804793, 0.00162834906950593, 0.0017154726665467024, 0.001802596147172153, 0.0018897197442129254, 0.001976843224838376, 0.0020639668218791485, 0.0021510901860892773, 0.0022382137831300497, 0.002325337380170822, 0.002412460744380951]}, "gradients/fc1.weight": {"_type": "histogram", "values": [1.0, 1.0, 0.0, 0.0, 0.0, 2.0, 1.0, 2.0, 5.0, 1.0, 2.0, 6.0, 8.0, 9.0, 6.0, 10.0, 21.0, 16.0, 23.0, 26.0, 28.0, 25.0, 32.0, 43.0, 61.0, 97.0, 133.0, 174.0, 305.0, 532.0, 1015.0, 2291.0, 18393.0, 3620.0, 1485.0, 898.0, 466.0, 279.0, 201.0, 116.0, 105.0, 74.0, 57.0, 41.0, 35.0, 20.0, 8.0, 11.0, 8.0, 4.0, 4.0, 4.0, 4.0, 0.0, 2.0, 4.0, 1.0, 2.0, 0.0, 0.0, 0.0, 0.0, 1.0, 1.0], "bins": [-0.03176124393939972, -0.03079324960708618, -0.029825255274772644, -0.028857260942459106, -0.027889268472790718, -0.02692127414047718, -0.025953279808163643, -0.024985285475850105, -0.024017293006181717, -0.02304929867386818, -0.02208130434155464, -0.021113310009241104, -0.020145317539572716, -0.019177323207259178, -0.01820932887494564, -0.017241334542632103, -0.016273340210318565, -0.015305345878005028, -0.014337352477014065, -0.013369358144700527, -0.012401364743709564, -0.011433370411396027, -0.010465376079082489, -0.009497381746768951, -0.008529387414455414, -0.0075613935478031635, -0.006593399681150913, -0.005625405348837376, -0.004657411482185125, -0.003689417615532875, -0.0027214232832193375, -0.0017534294165670872, -0.0007854346185922623, 0.00018255936447530985, 0.001150553347542882, 0.002118547447025776, 0.003086541313678026, 0.0040545351803302765, 0.005022529512643814, 0.005990523379296064, 0.00695851631462574, 0.007926510646939278, 0.00889450404793024, 0.009862498380243778, 0.010830491781234741, 0.011798486113548279, 0.012766480445861816, 0.013734474778175354, 0.014702469110488892, 0.01567046344280243, 0.016638457775115967, 0.017606452107429504, 0.018574444577097893, 0.01954243890941143, 0.020510433241724968, 0.021478427574038506, 0.022446420043706894, 0.02341441437602043, 0.02438240870833397, 0.025350403040647507, 0.026318395510315895, 0.027286389842629433, 0.02825438417494297, 0.029222378507256508, 0.030190372839570045]}, "gradients/conv2.weight": {"_type": "histogram", "values": [2.0, 0.0, 0.0, 2.0, 1.0, 1.0, 5.0, 0.0, 3.0, 0.0, 3.0, 0.0, 6.0, 2.0, 6.0, 4.0, 6.0, 8.0, 13.0, 10.0, 13.0, 10.0, 10.0, 11.0, 19.0, 23.0, 19.0, 33.0, 51.0, 33.0, 39.0, 60.0, 62.0, 72.0, 73.0, 79.0, 119.0, 133.0, 164.0, 234.0, 210.0, 158.0, 136.0, 99.0, 88.0, 68.0, 71.0, 51.0, 34.0, 36.0, 32.0, 25.0, 16.0, 8.0, 12.0, 8.0, 4.0, 6.0, 3.0, 3.0, 2.0, 0.0, 0.0, 1.0], "bins": [-0.027133354917168617, -0.026449037715792656, -0.025764718651771545, -0.025080401450395584, -0.024396084249019623, -0.023711765184998512, -0.02302744798362255, -0.02234312891960144, -0.02165881171822548, -0.020974494516849518, -0.020290175452828407, -0.019605858251452446, -0.018921541050076485, -0.018237221986055374, -0.017552904784679413, -0.01686858758330345, -0.01618427038192749, -0.015499952249228954, -0.014815635047852993, -0.014131316915154457, -0.013446998782455921, -0.012762680649757385, -0.012078363448381424, -0.011394045315682888, -0.010709727182984352, -0.010025409050285816, -0.009341091848909855, -0.008656773716211319, -0.007972455583512783, -0.0072881379164755344, -0.006603820249438286, -0.00591950211673975, -0.005235183984041214, -0.004550866317003965, -0.0038665481843054295, -0.003182230517268181, -0.0024979126174002886, -0.0018135947175323963, -0.0011292770504951477, -0.0004449589177966118, 0.00023935921490192413, 0.0009236770565621555, 0.0016079948982223868, 0.0022923126816749573, 0.0029766305815428495, 0.003660948481410742, 0.00434526614844799, 0.005029584281146526, 0.005713901482522488, 0.006398219149559736, 0.007082537282258272, 0.007766854949295521, 0.008451173081994057, 0.009135490283370018, 0.009819808416068554, 0.01050412654876709, 0.011188443750143051, 0.011872761882841587, 0.012557079084217548, 0.013241397216916084, 0.01392571534961462, 0.014610033482313156, 0.015294350683689117, 0.01597866788506508, 0.01666298694908619]}, "gradients/conv2.bias": {"_type": "histogram", "values": [1.0, 0.0, 0.0, 0.0, 0.0, 0.0, 0.0, 0.0, 0.0, 0.0, 1.0, 0.0, 0.0, 0.0, 0.0, 0.0, 0.0, 0.0, 0.0, 0.0, 0.0, 0.0, 0.0, 0.0, 0.0, 0.0, 0.0, 3.0, 1.0, 0.0, 0.0, 0.0, 1.0, 0.0, 1.0, 0.0, 0.0, 0.0, 0.0, 0.0, 0.0, 1.0, 0.0, 0.0, 0.0, 1.0, 0.0, 1.0, 0.0, 0.0, 0.0, 0.0, 0.0, 1.0, 0.0, 0.0, 2.0, 0.0, 0.0, 1.0, 0.0, 0.0, 0.0, 1.0], "bins": [-0.007865656167268753, -0.007676505483686924, -0.007487354334443808, -0.0072982036508619785, -0.0071090529672801495, -0.006919901818037033, -0.006730751134455204, -0.006541600450873375, -0.006352449767291546, -0.006163299083709717, -0.0059741479344666, -0.005784997250884771, -0.005595846567302942, -0.005406695418059826, -0.005217544734477997, -0.005028394050896168, -0.004839242901653051, -0.004650092218071222, -0.004460941068828106, -0.004271790385246277, -0.004082639701664448, -0.003893488785251975, -0.0037043378688395023, -0.0035151871852576733, -0.003326036036014557, -0.003136885119602084, -0.002947734436020255, -0.0027585835196077824, -0.0025694328360259533, -0.0023802819196134806, -0.002191131003201008, -0.0020019803196191788, -0.0018128296360373497, -0.0016236788360401988, -0.001434528036043048, -0.0012453771196305752, -0.0010562263196334243, -0.0008670755196362734, -0.0006779246032238007, -0.0004887738032266498, -0.0002996232360601425, -0.00011047240695916116, 7.867842214182019e-05, 0.000267829280346632, 0.0004569800803437829, 0.0006461308803409338, 0.0008352817967534065, 0.0010244325967505574, 0.001213583629578352, 0.0014027344295755029, 0.0015918852295726538, 0.0017810361459851265, 0.0019701868295669556, 0.0021593377459794283, 0.002348488662391901, 0.00253763934597373, 0.002726790262386203, 0.0029159411787986755, 0.0031050918623805046, 0.0032942427787929773, 0.00348339369520545, 0.003672544378787279, 0.003861695295199752, 0.004050846211612225, 0.004239996895194054]}, "gradients/conv1.weight": {"_type": "histogram", "values": [1.0, 1.0, 1.0, 2.0, 2.0, 1.0, 1.0, 3.0, 2.0, 4.0, 2.0, 3.0, 1.0, 2.0, 8.0, 2.0, 3.0, 6.0, 4.0, 3.0, 3.0, 3.0, 2.0, 2.0, 3.0, 3.0, 8.0, 3.0, 4.0, 4.0, 7.0, 5.0, 3.0, 4.0, 1.0, 4.0, 3.0, 1.0, 1.0, 3.0, 1.0, 2.0, 2.0, 3.0, 0.0, 5.0, 0.0, 1.0, 0.0, 1.0, 2.0, 1.0, 2.0, 0.0, 0.0, 2.0, 1.0, 1.0, 1.0, 1.0, 2.0, 0.0, 0.0, 3.0], "bins": [-0.014186704531311989, -0.013691708445549011, -0.013196713291108608, -0.012701718136668205, -0.012206722050905228, -0.01171172596514225, -0.011216730810701847, -0.010721735656261444, -0.010226739570498466, -0.009731743484735489, -0.009236748330295086, -0.008741753175854683, -0.008246757090091705, -0.007751761469990015, -0.007256765849888325, -0.0067617702297866344, -0.006266774609684944, -0.005771778989583254, -0.005276783369481564, -0.004781787749379873, -0.004286792129278183, -0.0037917965091764927, -0.0032968008890748024, -0.002801805268973112, -0.002306809648871422, -0.0018118140287697315, -0.0013168184086680412, -0.0008218227885663509, -0.00032682716846466064, 0.00016816845163702965, 0.0006631640717387199, 0.0011581596918404102, 0.0016531571745872498, 0.00214815279468894, 0.0026431484147906303, 0.0031381440348923206, 0.003633139654994011, 0.004128135275095701, 0.0046231308951973915, 0.005118126515299082, 0.005613122135400772, 0.006108117755502462, 0.006603113375604153, 0.007098108995705843, 0.007593104615807533, 0.00808810070157051, 0.008583095856010914, 0.009078091010451317, 0.009573087096214294, 0.010068083181977272, 0.010563078336417675, 0.011058073490858078, 0.011553069576621056, 0.012048065662384033, 0.012543060816824436, 0.01303805597126484, 0.013533052057027817, 0.014028048142790794, 0.014523043297231197, 0.0150180384516716, 0.015513034537434578, 0.016008030623197556, 0.016503024846315384, 0.01699802093207836, 0.01749301701784134]}, "gradients/conv1.bias": {"_type": "histogram", "values": [1.0, 0.0, 0.0, 0.0, 0.0, 0.0, 0.0, 0.0, 0.0, 1.0, 0.0, 0.0, 0.0, 0.0, 0.0, 0.0, 0.0, 0.0, 0.0, 0.0, 0.0, 0.0, 0.0, 0.0, 1.0, 0.0, 0.0, 0.0, 0.0, 0.0, 0.0, 0.0, 0.0, 0.0, 0.0, 0.0, 0.0, 0.0, 0.0, 1.0, 0.0, 0.0, 0.0, 0.0, 0.0, 0.0, 0.0, 0.0, 0.0, 0.0, 0.0, 0.0, 0.0, 0.0, 0.0, 0.0, 1.0, 0.0, 0.0, 0.0, 0.0, 0.0, 0.0, 1.0], "bins": [-0.018539411947131157, -0.017971394583582878, -0.0174033772200346, -0.01683535799384117, -0.016267340630292892, -0.015699323266744614, -0.015131305903196335, -0.014563288539648056, -0.013995271176099777, -0.013427253812551498, -0.012859235517680645, -0.012291218154132366, -0.011723200790584087, -0.011155182495713234, -0.010587165132164955, -0.010019147768616676, -0.009451129473745823, -0.008883112110197544, -0.00831509381532669, -0.007747076451778412, -0.007179059088230133, -0.006611041259020567, -0.006043023429811001, -0.005475006066262722, -0.004906987771391869, -0.0043389699421823025, -0.0037709525786340237, -0.0032029347494244576, -0.002634917153045535, -0.0020668995566666126, -0.0014988817274570465, -0.0009308643639087677, -0.0003628470003604889, 0.00020517065422609448, 0.0007731883088126779, 0.0013412060216069221, 0.0019092236179858446, 0.002477241214364767, 0.003045259043574333, 0.003613276407122612, 0.004181293770670891, 0.004749311599880457, 0.005317328963428736, 0.005885346792638302, 0.006453364156186581, 0.007021381985396147, 0.007589399814605713, 0.008157417178153992, 0.008725435473024845, 0.009293452836573124, 0.009861471131443977, 0.010429488494992256, 0.010997505858540535, 0.011565523222088814, 0.012133541516959667, 0.012701558880507946, 0.0132695771753788, 0.013837594538927078, 0.014405612833797932, 0.01497363019734621, 0.01554164756089449, 0.016109665855765343, 0.01667768321931362, 0.0172457005828619, 0.01781371794641018]}, "_wandb": {"runtime": 52}}