{"loss": 0.2228890061378479, "_runtime": 50, "_timestamp": 1641468451, "_step": 69, "validation_accuracy": 0.9703999757766724, "gradients/fc3.bias": {"_type": "histogram", "values": [1.0, 0.0, 0.0, 0.0, 0.0, 0.0, 0.0, 0.0, 0.0, 0.0, 0.0, 0.0, 0.0, 0.0, 0.0, 0.0, 0.0, 0.0, 0.0, 0.0, 0.0, 0.0, 0.0, 0.0, 0.0, 0.0, 0.0, 0.0, 0.0, 0.0, 0.0, 0.0, 0.0, 0.0, 1.0, 0.0, 0.0, 0.0, 0.0, 0.0, 2.0, 2.0, 1.0, 0.0, 0.0, 0.0, 1.0, 0.0, 0.0, 0.0, 0.0, 0.0, 0.0, 0.0, 0.0, 0.0, 0.0, 1.0, 0.0, 0.0, 0.0, 0.0, 0.0, 1.0], "bins": [-0.014610453508794308, -0.014252990484237671, -0.013895528391003609, -0.013538066297769547, -0.01318060327321291, -0.012823140248656273, -0.01246567815542221, -0.012108216062188148, -0.011750753037631512, -0.011393290013074875, -0.011035827919840813, -0.01067836582660675, -0.010320902802050114, -0.009963439777493477, -0.009605977684259415, -0.009248515591025352, -0.008891052566468716, -0.008533589541912079, -0.008176127448678017, -0.007818665355443954, -0.007461202330887318, -0.007103739771991968, -0.006746277213096619, -0.006388814654201269, -0.00603135209530592, -0.00567388953641057, -0.005316426977515221, -0.004958964418619871, -0.004601501859724522, -0.004244039300829172, -0.0038865767419338226, -0.003529114183038473, -0.003171650692820549, -0.0028141881339251995, -0.00245672557502985, -0.0020992630161345005, -0.001741800457239151, -0.0013843378983438015, -0.001026875339448452, -0.0006694127805531025, -0.000311950221657753, 4.551233723759651e-05, 0.000402974896132946, 0.0007604374550282955, 0.001117900013923645, 0.0014753625728189945, 0.001832825131714344, 0.0021902876906096935, 0.002547750249505043, 0.0029052128084003925, 0.003262675367295742, 0.0036201379261910915, 0.003977600485086441, 0.0043350630439817905, 0.00469252560287714, 0.0050499881617724895, 0.005407450720667839, 0.0057649132795631886, 0.006122375838458538, 0.0064798383973538876, 0.006837300956249237, 0.0071947635151445866, 0.007552226074039936, 0.007909689098596573, 0.008267151191830635]}, "gradients/fc3.weight": {"_type": "histogram", "values": [1.0, 0.0, 0.0, 0.0, 1.0, 1.0, 0.0, 0.0, 2.0, 1.0, 1.0, 1.0, 0.0, 1.0, 1.0, 0.0, 1.0, 0.0, 2.0, 2.0, 3.0, 4.0, 2.0, 5.0, 3.0, 3.0, 0.0, 0.0, 3.0, 2.0, 2.0, 2.0, 3.0, 3.0, 9.0, 15.0, 30.0, 481.0, 142.0, 28.0, 11.0, 8.0, 7.0, 7.0, 6.0, 4.0, 11.0, 4.0, 6.0, 0.0, 0.0, 5.0, 1.0, 4.0, 1.0, 1.0, 5.0, 0.0, 1.0, 1.0, 0.0, 0.0, 1.0, 1.0], "bins": [-0.10739252716302872, -0.10454913973808289, -0.10170574486255646, -0.09886235743761063, -0.0960189700126648, -0.09317557513713837, -0.09033218771219254, -0.0874888002872467, -0.08464540541172028, -0.08180201798677444, -0.07895862311124802, -0.07611523568630219, -0.07327184081077576, -0.07042845338582993, -0.0675850659608841, -0.06474167108535767, -0.061898283660411835, -0.059054892510175705, -0.056211501359939575, -0.053368113934993744, -0.050524722784757614, -0.047681331634521484, -0.04483794420957565, -0.04199455305933952, -0.039151161909103394, -0.036307770758867264, -0.033464379608631134, -0.030620992183685303, -0.027777601033449173, -0.024934209883213043, -0.022090820595622063, -0.019247431308031082, -0.016404032707214355, -0.0135606424883008, -0.010717252269387245, -0.00787386205047369, -0.005030471831560135, -0.0021870816126465797, 0.0006563086062669754, 0.003499697893857956, 0.006343089044094086, 0.00918647926300764, 0.012029869481921196, 0.014873259700834751, 0.017716649919748306, 0.020560041069984436, 0.023403430357575417, 0.026246819645166397, 0.029090210795402527, 0.03193360194563866, 0.034776993095874786, 0.03762038052082062, 0.04046377167105675, 0.04330716282129288, 0.04615055024623871, 0.04899394139647484, 0.05183733254671097, 0.0546807236969471, 0.05752411484718323, 0.06036750227212906, 0.06321088969707489, 0.06605428457260132, 0.06889767199754715, 0.07174105942249298, 0.07458445429801941]}, "gradients/fc2.bias": {"_type": "histogram", "values": [1.0, 0.0, 0.0, 0.0, 0.0, 0.0, 0.0, 1.0, 0.0, 1.0, 0.0, 2.0, 2.0, 0.0, 3.0, 1.0, 1.0, 0.0, 0.0, 0.0, 0.0, 1.0, 2.0, 0.0, 1.0, 2.0, 0.0, 2.0, 3.0, 1.0, 5.0, 4.0, 19.0, 4.0, 0.0, 4.0, 1.0, 2.0, 0.0, 4.0, 2.0, 1.0, 1.0, 2.0, 0.0, 1.0, 1.0, 1.0, 1.0, 0.0, 0.0, 1.0, 2.0, 0.0, 1.0, 1.0, 0.0, 0.0, 0.0, 0.0, 0.0, 0.0, 0.0, 2.0], "bins": [-0.003717300482094288, -0.0036030327901244164, -0.003488765098154545, -0.0033744974061846733, -0.0032602299470454454, -0.003145962255075574, -0.0030316945631057024, -0.002917426871135831, -0.002803159411996603, -0.0026888917200267315, -0.00257462402805686, -0.0024603563360869884, -0.0023460888769477606, -0.002231821184977889, -0.0021175534930080175, -0.002003285801038146, -0.0018890181090682745, -0.001774750417098403, -0.0016604828415438533, -0.0015462151495739818, -0.001431947574019432, -0.0013176798820495605, -0.001203412190079689, -0.0010891444981098175, -0.000974876806139946, -0.0008606091723777354, -0.0007463415386155248, -0.0006320738466456532, -0.0005178062128834426, -0.00040353857912123203, -0.0002892708871513605, -0.0001750032533891499, -6.073550321161747e-05, 5.3532145102508366e-05, 0.0001677997934166342, 0.00028206745628267527, 0.0003963350900448859, 0.0005106027238070965, 0.000624870415776968, 0.0007391380495391786, 0.0008534055668860674, 0.000967673200648278, 0.0010819408344104886, 0.0011962085263803601, 0.0013104761019349098, 0.0014247437939047813, 0.0015390114858746529, 0.0016532791778445244, 0.001767546869814396, 0.0018818145617842674, 0.001996082253754139, 0.0021103499457240105, 0.0022246174048632383, 0.00233888509683311, 0.0024531527888029814, 0.002567420480772853, 0.0026816879399120808, 0.0027959556318819523, 0.002910223323851824, 0.0030244910158216953, 0.003138758474960923, 0.0032530261669307947, 0.0033672938589006662, 0.0034815615508705378, 0.0035958292428404093]}, "gradients/fc2.weight": {"_type": "histogram", "values": [1.0, 0.0, 1.0, 0.0, 2.0, 1.0, 1.0, 2.0, 2.0, 7.0, 5.0, 6.0, 11.0, 12.0, 18.0, 15.0, 46.0, 34.0, 56.0, 67.0, 72.0, 100.0, 101.0, 145.0, 246.0, 556.0, 6557.0, 795.0, 381.0, 221.0, 132.0, 102.0, 77.0, 81.0, 37.0, 43.0, 36.0, 18.0, 27.0, 12.0, 11.0, 5.0, 16.0, 2.0, 3.0, 3.0, 3.0, 1.0, 1.0, 0.0, 3.0, 2.0, 2.0, 0.0, 0.0, 0.0, 0.0, 0.0, 1.0, 0.0, 0.0, 0.0, 0.0, 1.0], "bins": [-0.030753880739212036, -0.029603542760014534, -0.028453204780817032, -0.02730286680161953, -0.026152528822422028, -0.025002190843224525, -0.023851852864027023, -0.022701513022184372, -0.02155117690563202, -0.020400838926434517, -0.019250500947237015, -0.018100162968039513, -0.01694982498884201, -0.01579948700964451, -0.014649148099124432, -0.01349881011992693, -0.012348471209406853, -0.01119813323020935, -0.010047795251011848, -0.008897457271814346, -0.007747118826955557, -0.006596780847758055, -0.005446442402899265, -0.004296104423701763, -0.0031457655131816864, -0.0019954275339841843, -0.0008450893219560385, 0.0003052488900721073, 0.0014555868692696095, 0.0026059248484671116, 0.003756263293325901, 0.004906601272523403, 0.006056938320398331, 0.007207276299595833, 0.008357614278793335, 0.009507952257990837, 0.01065829023718834, 0.011808628216385841, 0.012958967126905918, 0.01410930510610342, 0.015259642153978348, 0.01640998013317585, 0.017560318112373352, 0.018710656091570854, 0.019860994070768356, 0.02101133204996586, 0.02216167002916336, 0.023312009871006012, 0.024462347850203514, 0.025612685829401016, 0.02676302380859852, 0.02791336178779602, 0.029063699766993523, 0.030214037746191025, 0.031364377588033676, 0.03251471370458603, 0.03366505354642868, 0.03481539338827133, 0.035965729504823685, 0.037116069346666336, 0.03826640546321869, 0.03941674530506134, 0.04056708142161369, 0.041717421263456345, 0.0428677573800087]}, "gradients/fc1.bias": {"_type": "histogram", "values": [1.0, 0.0, 0.0, 0.0, 0.0, 0.0, 0.0, 0.0, 0.0, 0.0, 0.0, 1.0, 0.0, 0.0, 0.0, 1.0, 0.0, 0.0, 1.0, 3.0, 0.0, 0.0, 1.0, 1.0, 1.0, 0.0, 2.0, 3.0, 2.0, 3.0, 2.0, 1.0, 2.0, 2.0, 4.0, 5.0, 2.0, 13.0, 32.0, 7.0, 2.0, 3.0, 3.0, 0.0, 4.0, 0.0, 3.0, 4.0, 0.0, 1.0, 3.0, 1.0, 1.0, 0.0, 1.0, 2.0, 0.0, 0.0, 0.0, 0.0, 1.0, 0.0, 0.0, 1.0], "bins": [-0.006023365072906017, -0.0058656660839915276, -0.0057079666294157505, -0.005550267640501261, -0.005392568185925484, -0.005234869197010994, -0.005077170208096504, -0.0049194712191820145, -0.004761771764606237, -0.004604072775691748, -0.004446373321115971, -0.004288674332201481, -0.004130975343286991, -0.003973275888711214, -0.0038155768997967243, -0.003657877678051591, -0.0035001784563064575, -0.003342479234561324, -0.0031847800128161907, -0.003027081023901701, -0.0028693818021565676, -0.002711682580411434, -0.0025539835914969444, -0.002396284369751811, -0.0022385851480066776, -0.0020808859262615442, -0.0019231868209317327, -0.001765487715601921, -0.0016077884938567877, -0.0014500892721116543, -0.0012923901667818427, -0.0011346910614520311, -0.0009769913740456104, -0.0008192922105081379, -0.0006615930469706655, -0.000503893883433193, -0.0003461947198957205, -0.000188495556358248, -3.079639282077551e-05, 0.00012690271250903606, 0.00028460193425416946, 0.00044230109779164195, 0.0006000002613291144, 0.0007576994248665869, 0.0009153985884040594, 0.0010730978101491928, 0.0012307969154790044, 0.001388496020808816, 0.0015461952425539494, 0.0017038944642990828, 0.0018615935696288943, 0.002019292674958706, 0.0021769918967038393, 0.0023346911184489727, 0.0024923901073634624, 0.002650089329108596, 0.0028077885508537292, 0.0029654877725988626, 0.003123186994343996, 0.003280885983258486, 0.003438585205003619, 0.0035962844267487526, 0.0037539834156632423, 0.003911682404577732, 0.004069381859153509]}, "gradients/fc1.weight": {"_type": "histogram", "values": [1.0, 0.0, 0.0, 0.0, 0.0, 0.0, 0.0, 1.0, 1.0, 1.0, 1.0, 2.0, 2.0, 1.0, 3.0, 4.0, 5.0, 10.0, 7.0, 11.0, 14.0, 13.0, 19.0, 38.0, 39.0, 56.0, 77.0, 105.0, 99.0, 130.0, 192.0, 261.0, 432.0, 700.0, 1376.0, 6731.0, 17029.0, 1412.0, 681.0, 400.0, 256.0, 152.0, 120.0, 78.0, 60.0, 44.0, 36.0, 26.0, 27.0, 18.0, 18.0, 4.0, 7.0, 6.0, 6.0, 3.0, 2.0, 0.0, 0.0, 1.0, 1.0, 0.0, 0.0, 1.0], "bins": [-0.047923192381858826, -0.04659317433834076, -0.04526315629482269, -0.043933141976594925, -0.04260312393307686, -0.04127310588955879, -0.039943087846040726, -0.03861307352781296, -0.03728305548429489, -0.035953037440776825, -0.03462301939725876, -0.03329300507903099, -0.031962987035512924, -0.030632968991994858, -0.02930295094847679, -0.027972934767603874, -0.026642916724085808, -0.02531289868056774, -0.023982882499694824, -0.022652864456176758, -0.02132284827530384, -0.019992830231785774, -0.018662814050912857, -0.01733279600739479, -0.016002777963876724, -0.014672760851681232, -0.01334274373948574, -0.012012725695967674, -0.010682709515094757, -0.00935269147157669, -0.008022674359381199, -0.006692657247185707, -0.00536264106631279, -0.004032623954117298, -0.0027026066090911627, -0.0013725892640650272, -4.2572151869535446e-05, 0.0012874449603259563, 0.0026174625381827354, 0.003947479650378227, 0.005277495831251144, 0.006607512943446636, 0.007937530055642128, 0.009267548099160194, 0.010597564280033112, 0.011927582323551178, 0.01325759943574667, 0.014587616547942162, 0.015917634591460228, 0.017247652634978294, 0.01857766881585121, 0.019907686859369278, 0.021237703040242195, 0.02256772108376026, 0.02389773726463318, 0.025227755308151245, 0.02655777335166931, 0.027887791395187378, 0.029217807576060295, 0.03054782561957836, 0.03187784180045128, 0.033207859843969345, 0.03453787788748741, 0.03586789220571518, 0.037197910249233246]}, "gradients/conv2.weight": {"_type": "histogram", "values": [1.0, 0.0, 0.0, 2.0, 2.0, 2.0, 3.0, 4.0, 7.0, 4.0, 13.0, 17.0, 13.0, 10.0, 13.0, 17.0, 18.0, 22.0, 25.0, 31.0, 53.0, 65.0, 52.0, 101.0, 115.0, 118.0, 140.0, 170.0, 248.0, 310.0, 180.0, 166.0, 107.0, 75.0, 53.0, 47.0, 15.0, 29.0, 28.0, 12.0, 12.0, 4.0, 11.0, 12.0, 9.0, 8.0, 8.0, 8.0, 5.0, 5.0, 4.0, 1.0, 3.0, 2.0, 3.0, 5.0, 1.0, 0.0, 2.0, 2.0, 3.0, 2.0, 1.0, 1.0], "bins": [-0.04904161021113396, -0.04736347496509552, -0.04568533971905708, -0.044007204473018646, -0.04232906922698021, -0.04065093398094177, -0.038972798734903336, -0.0372946634888649, -0.03561652824282646, -0.033938392996788025, -0.03226025775074959, -0.03058212250471115, -0.028903987258672714, -0.027225852012634277, -0.02554771676659584, -0.023869581520557404, -0.022191448137164116, -0.02051331289112568, -0.018835177645087242, -0.017157042399048805, -0.015478907153010368, -0.013800772838294506, -0.01212263759225607, -0.010444502346217632, -0.00876636803150177, -0.007088232785463333, -0.005410097539424896, -0.0037319627590477467, -0.0020538275130093098, -0.0003756927326321602, 0.0013024425134062767, 0.0029805777594447136, 0.004658713936805725, 0.006336849182844162, 0.008014984428882599, 0.009693119674921036, 0.011371254920959473, 0.013049389235675335, 0.014727524481713772, 0.016405660659074783, 0.01808379590511322, 0.019761931151151657, 0.021440066397190094, 0.02311820164322853, 0.024796336889266968, 0.026474472135305405, 0.02815260738134384, 0.02983074262738228, 0.031508877873420715, 0.03318701311945915, 0.03486514836549759, 0.036543283611536026, 0.03822141885757446, 0.0398995541036129, 0.04157768934965134, 0.043255824595689774, 0.04493395611643791, 0.04661209136247635, 0.048290226608514786, 0.04996836185455322, 0.05164649710059166, 0.053324632346630096, 0.05500276759266853, 0.05668090283870697, 0.05835903808474541]}, "gradients/conv2.bias": {"_type": "histogram", "values": [1.0, 0.0, 1.0, 0.0, 0.0, 1.0, 0.0, 0.0, 0.0, 0.0, 0.0, 2.0, 0.0, 0.0, 0.0, 1.0, 0.0, 0.0, 1.0, 0.0, 3.0, 0.0, 0.0, 0.0, 0.0, 1.0, 1.0, 1.0, 1.0, 0.0, 0.0, 0.0, 0.0, 0.0, 0.0, 0.0, 0.0, 0.0, 0.0, 0.0, 0.0, 0.0, 0.0, 0.0, 0.0, 0.0, 0.0, 0.0, 0.0, 1.0, 0.0, 0.0, 0.0, 0.0, 0.0, 0.0, 0.0, 0.0, 0.0, 0.0, 0.0, 0.0, 0.0, 1.0], "bins": [-0.016666894778609276, -0.015985533595085144, -0.015304174274206161, -0.01462281309068203, -0.013941452838480473, -0.013260092586278915, -0.012578731402754784, -0.011897371150553226, -0.01121601089835167, -0.010534650646150112, -0.009853290393948555, -0.009171929210424423, -0.008490568958222866, -0.007809208706021309, -0.007127847988158464, -0.00644648727029562, -0.005765127018094063, -0.005083766765892506, -0.004402406048029661, -0.0037210455629974604, -0.0030396850779652596, -0.0023583245929330587, -0.001676964107900858, -0.0009956033900380135, -0.0003142431378364563, 0.0003671173471957445, 0.0010484778322279453, 0.0017298383172601461, 0.002411198802292347, 0.0030925592873245478, 0.0037739197723567486, 0.004455280490219593, 0.0051366426050662994, 0.005818002857267857, 0.006499363575130701, 0.0071807242929935455, 0.007862084545195103, 0.00854344479739666, 0.009224805980920792, 0.009906166233122349, 0.010587526485323906, 0.011268886737525463, 0.01195024698972702, 0.012631608173251152, 0.01331296842545271, 0.013994328677654266, 0.014675689861178398, 0.015357050113379955, 0.016038410365581512, 0.016719771549105644, 0.017401130869984627, 0.01808249205350876, 0.01876385137438774, 0.019445212557911873, 0.020126573741436005, 0.020807933062314987, 0.02148929424583912, 0.02217065542936325, 0.022852014750242233, 0.023533375933766365, 0.024214737117290497, 0.02489609643816948, 0.02557745762169361, 0.026258818805217743, 0.026940178126096725]}, "gradients/conv1.weight": {"_type": "histogram", "values": [1.0, 0.0, 0.0, 0.0, 0.0, 0.0, 0.0, 1.0, 0.0, 1.0, 2.0, 2.0, 3.0, 2.0, 1.0, 2.0, 3.0, 4.0, 3.0, 3.0, 3.0, 8.0, 4.0, 2.0, 4.0, 3.0, 6.0, 2.0, 5.0, 6.0, 7.0, 4.0, 3.0, 3.0, 3.0, 4.0, 3.0, 2.0, 3.0, 6.0, 4.0, 2.0, 2.0, 2.0, 2.0, 7.0, 2.0, 0.0, 1.0, 4.0, 3.0, 1.0, 1.0, 1.0, 1.0, 1.0, 1.0, 1.0, 2.0, 1.0, 0.0, 0.0, 1.0, 1.0], "bins": [-0.049151405692100525, -0.047558970749378204, -0.045966535806655884, -0.04437410086393356, -0.04278166592121124, -0.04118923097848892, -0.0395967960357666, -0.03800436109304428, -0.03641192615032196, -0.03481949120759964, -0.03322705626487732, -0.031634621322155, -0.030042186379432678, -0.028449751436710358, -0.026857316493988037, -0.025264881551265717, -0.023672446608543396, -0.022080011665821075, -0.020487576723098755, -0.018895141780376434, -0.017302706837654114, -0.015710271894931793, -0.014117836952209473, -0.012525402009487152, -0.010932967066764832, -0.009340532124042511, -0.00774809718132019, -0.00615566223859787, -0.004563227295875549, -0.0029707923531532288, -0.0013783574104309082, 0.00021407753229141235, 0.001806512475013733, 0.0033989474177360535, 0.004991382360458374, 0.006583817303180695, 0.008176252245903015, 0.009768687188625336, 0.011361122131347656, 0.012953557074069977, 0.014545992016792297, 0.016138426959514618, 0.01773086190223694, 0.01932329684495926, 0.02091573178768158, 0.0225081667304039, 0.02410060167312622, 0.02569303661584854, 0.027285471558570862, 0.028877906501293182, 0.030470341444015503, 0.032062776386737823, 0.033655211329460144, 0.035247646272182465, 0.036840081214904785, 0.038432516157627106, 0.040024951100349426, 0.04161738604307175, 0.04320982098579407, 0.04480225592851639, 0.04639469087123871, 0.04798712581396103, 0.04957956075668335, 0.05117199569940567, 0.05276443064212799]}, "gradients/conv1.bias": {"_type": "histogram", "values": [1.0, 0.0, 0.0, 0.0, 0.0, 0.0, 0.0, 0.0, 0.0, 0.0, 0.0, 0.0, 1.0, 1.0, 0.0, 0.0, 1.0, 0.0, 0.0, 0.0, 0.0, 0.0, 0.0, 0.0, 0.0, 0.0, 0.0, 0.0, 0.0, 0.0, 0.0, 0.0, 0.0, 0.0, 0.0, 0.0, 0.0, 0.0, 0.0, 0.0, 0.0, 0.0, 0.0, 0.0, 0.0, 1.0, 0.0, 0.0, 0.0, 0.0, 0.0, 0.0, 0.0, 0.0, 0.0, 0.0, 0.0, 0.0, 0.0, 0.0, 0.0, 0.0, 0.0, 1.0], "bins": [-0.03965848684310913, -0.037888769060373306, -0.03611905500292778, -0.034349337220191956, -0.03257962316274643, -0.030809905380010605, -0.02904018945991993, -0.027270473539829254, -0.02550075575709343, -0.023731039837002754, -0.02196132391691208, -0.020191606134176254, -0.01842189021408558, -0.016652174293994904, -0.014882458373904228, -0.013112741522490978, -0.011343026533722878, -0.009573310613632202, -0.007803593762218952, -0.006033877842128277, -0.004264161456376314, -0.0024944450706243515, -0.0007247291505336761, 0.0010449877008795738, 0.0028147026896476746, 0.004584419075399637, 0.0063541354611516, 0.008123851381242275, 0.009893568232655525, 0.0116632841527462, 0.013433000072836876, 0.015202716924250126, 0.016972433775663376, 0.01874214969575405, 0.020511865615844727, 0.02228158339858055, 0.024051299318671227, 0.025821015238761902, 0.027590731158852577, 0.029360447078943253, 0.031130164861679077, 0.0328998826444149, 0.03466959670186043, 0.03643931448459625, 0.03820902854204178, 0.0399787463247776, 0.04174846410751343, 0.043518178164958954, 0.04528789222240448, 0.047057610005140305, 0.04882732406258583, 0.050597041845321655, 0.05236675590276718, 0.054136473685503006, 0.05590619146823883, 0.05767590552568436, 0.05944562330842018, 0.061215341091156006, 0.06298505514860153, 0.06475476920604706, 0.06652449071407318, 0.06829420477151871, 0.07006391882896423, 0.07183364033699036, 0.07360335439443588]}, "_wandb": {"runtime": 51}}