{"loss": 2.3100016117095947, "_runtime": 52, "_timestamp": 1641468699, "_step": 57, "validation_accuracy": 0.10599999874830246, "gradients/fc3.bias": {"_type": "histogram", "values": [1.0, 0.0, 0.0, 0.0, 1.0, 1.0, 0.0, 0.0, 0.0, 0.0, 1.0, 0.0, 0.0, 0.0, 0.0, 0.0, 0.0, 0.0, 0.0, 0.0, 0.0, 0.0, 0.0, 0.0, 0.0, 0.0, 0.0, 0.0, 0.0, 0.0, 0.0, 0.0, 0.0, 0.0, 0.0, 1.0, 0.0, 0.0, 0.0, 0.0, 1.0, 0.0, 0.0, 0.0, 1.0, 0.0, 0.0, 0.0, 0.0, 0.0, 0.0, 0.0, 1.0, 0.0, 0.0, 0.0, 0.0, 0.0, 0.0, 0.0, 0.0, 1.0, 0.0, 1.0], "bins": [-0.036681026220321655, -0.03553403913974762, -0.034387048333883286, -0.03324006125330925, -0.032093070447444916, -0.03094608336687088, -0.029799094423651695, -0.02865210548043251, -0.027505116537213326, -0.02635812759399414, -0.025211138650774956, -0.02406414970755577, -0.022917162626981735, -0.0217701718211174, -0.020623184740543365, -0.01947619579732418, -0.018329206854104996, -0.01718221791088581, -0.016035228967666626, -0.014888240955770016, -0.01374125201255083, -0.012594263069331646, -0.011447275057435036, -0.01030028611421585, -0.009153297170996666, -0.008006308227777481, -0.0068593197502195835, -0.005712331272661686, -0.004565342329442501, -0.003418353386223316, -0.0022713649086654186, -0.001124376431107521, 2.261251211166382e-05, 0.001169601222500205, 0.0023165899328887463, 0.0034635786432772875, 0.004610567353665829, 0.005757556296885014, 0.006904544774442911, 0.008051533252000809, 0.009198522195219994, 0.010345511138439178, 0.011492500081658363, 0.012639488093554974, 0.013786477036774158, 0.014933465979993343, 0.016080453991889954, 0.01722744293510914, 0.018374431878328323, 0.019521420821547508, 0.020668409764766693, 0.021815398707985878, 0.022962387651205063, 0.0241093747317791, 0.025256363674998283, 0.026403352618217468, 0.027550341561436653, 0.028697330504655838, 0.029844319447875023, 0.030991308391094208, 0.03213829547166824, 0.03328528627753258, 0.03443227335810661, 0.03557926416397095, 0.03672625124454498]}, "gradients/fc3.weight": {"_type": "histogram", "values": [1.0, 0.0, 0.0, 2.0, 1.0, 0.0, 2.0, 1.0, 0.0, 1.0, 1.0, 3.0, 6.0, 2.0, 1.0, 2.0, 3.0, 4.0, 3.0, 5.0, 6.0, 8.0, 3.0, 7.0, 7.0, 9.0, 8.0, 13.0, 10.0, 13.0, 19.0, 21.0, 22.0, 36.0, 35.0, 275.0, 59.0, 37.0, 35.0, 18.0, 17.0, 14.0, 13.0, 9.0, 15.0, 13.0, 20.0, 9.0, 7.0, 10.0, 9.0, 2.0, 4.0, 4.0, 1.0, 3.0, 3.0, 0.0, 3.0, 0.0, 1.0, 1.0, 2.0, 1.0], "bins": [-0.006475747097283602, -0.006294296123087406, -0.0061128451488912106, -0.005931394174695015, -0.005749943200498819, -0.005568492226302624, -0.0053870417177677155, -0.0052055902779102325, -0.005024139769375324, -0.004842688795179129, -0.004661237820982933, -0.0044797868467867374, -0.004298335872590542, -0.004116884898394346, -0.003935433924198151, -0.0037539831828325987, -0.0035725319758057594, -0.003391081001609564, -0.0032096300274133682, -0.0030281790532171726, -0.002846728079020977, -0.0026652771048247814, -0.0024838263634592295, -0.002302375389263034, -0.002120924647897482, -0.0019394736737012863, -0.0017580226995050907, -0.001576571841724217, -0.0013951208675280213, -0.0012136698933318257, -0.001032219035550952, -0.0008507680613547564, -0.0006693168543279171, -0.00048786590923555195, -0.0003064149641431868, -0.00012496404815465212, 5.6486926041543484e-05, 0.00023793790023773909, 0.00041938875801861286, 0.0006008397322148085, 0.0007822909392416477, 0.0009637419134378433, 0.001145192887634039, 0.0013266437454149127, 0.0015080947196111083, 0.001689545693807304, 0.0018709965515881777, 0.0020524475257843733, 0.0022338982671499252, 0.002415349241346121, 0.0025968002155423164, 0.002778251189738512, 0.0029597021639347076, 0.0031411531381309032, 0.003322603879496455, 0.003504054853692651, 0.0036855058278888464, 0.003866956802085042, 0.004048407543450594, 0.0042298585176467896, 0.004411309491842985, 0.004592760466039181, 0.004774211440235376, 0.004955662414431572, 0.0051371133886277676]}, "gradients/fc2.bias": {"_type": "histogram", "values": [1.0, 0.0, 1.0, 0.0, 1.0, 1.0, 3.0, 0.0, 1.0, 3.0, 1.0, 0.0, 0.0, 1.0, 2.0, 1.0, 2.0, 2.0, 2.0, 4.0, 1.0, 1.0, 2.0, 3.0, 1.0, 22.0, 2.0, 4.0, 0.0, 1.0, 1.0, 1.0, 0.0, 2.0, 0.0, 2.0, 1.0, 4.0, 0.0, 2.0, 1.0, 0.0, 0.0, 1.0, 2.0, 2.0, 0.0, 0.0, 0.0, 0.0, 0.0, 0.0, 0.0, 0.0, 0.0, 0.0, 1.0, 0.0, 0.0, 0.0, 0.0, 0.0, 0.0, 1.0], "bins": [-0.007949933409690857, -0.00763358362019062, -0.007317233365029097, -0.00700088357552886, -0.006684533320367336, -0.0063681835308671, -0.006051833741366863, -0.005735483951866627, -0.005419133696705103, -0.005102783907204866, -0.004786433652043343, -0.004470083862543106, -0.00415373407304287, -0.0038373838178813457, -0.0035210340283811092, -0.003204684006050229, -0.002888333983719349, -0.0025719839613884687, -0.0022556339390575886, -0.001939284149557352, -0.001622934127226472, -0.0013065841048955917, -0.0009902341989800334, -0.0006738842930644751, -0.0003575342707335949, -4.118430661037564e-05, 0.0002751656575128436, 0.0005915156216360629, 0.0009078655857592821, 0.0012242156080901623, 0.0015405655140057206, 0.001856915419921279, 0.002173265442252159, 0.0024896154645830393, 0.0028059654869139194, 0.003122315276414156, 0.003438665298745036, 0.0037550153210759163, 0.004071365110576153, 0.004387714900076389, 0.004704065155237913, 0.00502041494473815, 0.0053367651998996735, 0.00565311498939991, 0.0059694647789001465, 0.00628581503406167, 0.006602164823561907, 0.006918515078723431, 0.007234864868223667, 0.007551214657723904, 0.00786756444722414, 0.008183915168046951, 0.008500264957547188, 0.008816614747047424, 0.00913296453654766, 0.009449314326047897, 0.009765664115548134, 0.01008201390504837, 0.010398363694548607, 0.010714714415371418, 0.011031064204871655, 0.011347413994371891, 0.011663763783872128, 0.011980113573372364, 0.012296464294195175]}, "gradients/fc2.weight": {"_type": "histogram", "values": [1.0, 0.0, 0.0, 0.0, 0.0, 1.0, 1.0, 1.0, 2.0, 1.0, 3.0, 5.0, 6.0, 4.0, 9.0, 11.0, 13.0, 11.0, 25.0, 35.0, 40.0, 55.0, 54.0, 82.0, 115.0, 152.0, 203.0, 254.0, 359.0, 536.0, 1029.0, 5013.0, 624.0, 373.0, 271.0, 174.0, 135.0, 98.0, 99.0, 76.0, 48.0, 34.0, 27.0, 15.0, 19.0, 11.0, 9.0, 7.0, 10.0, 3.0, 2.0, 5.0, 0.0, 3.0, 1.0, 3.0, 5.0, 1.0, 1.0, 1.0, 1.0, 1.0, 1.0, 1.0], "bins": [-0.003225201042369008, -0.0031214607879519463, -0.003017720766365528, -0.0029139805119484663, -0.002810240490362048, -0.0027065002359449863, -0.002602760214358568, -0.0024990199599415064, -0.0023952799383550882, -0.0022915396839380264, -0.0021877996623516083, -0.0020840594079345465, -0.0019803193863481283, -0.0018765791319310665, -0.0017728391103446484, -0.0016690988559275866, -0.0015653587179258466, -0.0014616185799241066, -0.0013578784419223666, -0.0012541383039206266, -0.0011503981659188867, -0.0010466580279171467, -0.0009429178317077458, -0.0008391776937060058, -0.0007354374974966049, -0.0006316973594948649, -0.000527957221493125, -0.0004242170543875545, -0.00032047691638581455, -0.0002167367492802441, -0.00011299661127850413, -9.256473276764154e-06, 9.448360651731491e-05, 0.0001982237445190549, 0.00030196388252079487, 0.0004057040496263653, 0.0005094441585242748, 0.0006131843547336757, 0.0007169244927354157, 0.0008206646307371557, 0.0009244047105312347, 0.0010281448485329747, 0.0011318849865347147, 0.0012356251245364547, 0.0013393652625381947, 0.0014431055169552565, 0.0015468455385416746, 0.0016505857929587364, 0.0017543259309604764, 0.0018580660689622164, 0.001961806323379278, 0.0020655463449656963, 0.002169286599382758, 0.0022730266209691763, 0.002376766875386238, 0.0024805068969726562, 0.002584247151389718, 0.00268798740580678, 0.002791727427393198, 0.00289546768181026, 0.002999207703396678, 0.0031029479578137398, 0.003206687979400158, 0.0033104282338172197, 0.003414168255403638]}, "gradients/fc1.bias": {"_type": "histogram", "values": [1.0, 0.0, 0.0, 0.0, 0.0, 0.0, 0.0, 0.0, 0.0, 0.0, 0.0, 2.0, 2.0, 0.0, 0.0, 1.0, 0.0, 2.0, 2.0, 1.0, 2.0, 1.0, 1.0, 0.0, 3.0, 1.0, 0.0, 0.0, 5.0, 1.0, 2.0, 4.0, 5.0, 5.0, 8.0, 23.0, 4.0, 8.0, 2.0, 3.0, 5.0, 5.0, 2.0, 1.0, 4.0, 3.0, 2.0, 3.0, 0.0, 0.0, 1.0, 1.0, 1.0, 0.0, 0.0, 1.0, 0.0, 1.0, 0.0, 0.0, 0.0, 0.0, 0.0, 1.0], "bins": [-0.005469914525747299, -0.0053175631910562515, -0.005165211856365204, -0.0050128609873354435, -0.004860509652644396, -0.004708158317953348, -0.0045558069832623005, -0.004403455648571253, -0.0042511047795414925, -0.004098753444850445, -0.003946402110159397, -0.003794051008298993, -0.003641699906438589, -0.0034893485717475414, -0.0033369972370564938, -0.003184645902365446, -0.0030322945676743984, -0.0028799432329833508, -0.0027275921311229467, -0.002575240796431899, -0.002422889694571495, -0.0022705383598804474, -0.0021181870251893997, -0.001965835690498352, -0.001813484588637948, -0.0016611333703622222, -0.0015087821520864964, -0.0013564308173954487, -0.0012040795991197228, -0.001051728380843997, -0.0008993771043606102, -0.0007470258278772235, -0.0005946741439402103, -0.00044232289656065404, -0.00028997164918109775, -0.00013762040180154145, 1.473084557801485e-05, 0.0001670820638537407, 0.00031943334033712745, 0.0004717846168205142, 0.00062413583509624, 0.0007764870533719659, 0.0009288383298553526, 0.0010811896063387394, 0.0012335408246144652, 0.001385892042890191, 0.0015382433775812387, 0.0016905945958569646, 0.0018429458141326904, 0.001995297148823738, 0.002147648250684142, 0.0022999995853751898, 0.002452350687235594, 0.0026047020219266415, 0.002757053356617689, 0.002909404691308737, 0.003061755793169141, 0.0032141071278601885, 0.0033664582297205925, 0.00351880956441164, 0.003671160899102688, 0.003823512000963092, 0.003975863102823496, 0.0041282144375145435, 0.004280565772205591]}, "gradients/fc1.weight": {"_type": "histogram", "values": [1.0, 0.0, 2.0, 0.0, 0.0, 2.0, 2.0, 3.0, 1.0, 1.0, 2.0, 13.0, 17.0, 13.0, 17.0, 31.0, 34.0, 44.0, 59.0, 90.0, 116.0, 169.0, 229.0, 328.0, 424.0, 595.0, 824.0, 1141.0, 1766.0, 2869.0, 10472.0, 4397.0, 2473.0, 1505.0, 997.0, 651.0, 475.0, 305.0, 197.0, 132.0, 81.0, 57.0, 49.0, 38.0, 26.0, 21.0, 15.0, 7.0, 7.0, 4.0, 6.0, 3.0, 1.0, 0.0, 2.0, 3.0, 0.0, 0.0, 2.0, 0.0, 0.0, 0.0, 0.0, 1.0], "bins": [-0.0029860087670385838, -0.0028891339898109436, -0.0027922592125833035, -0.0026953844353556633, -0.002598509658128023, -0.002501634880900383, -0.002404760103672743, -0.0023078853264451027, -0.0022110105492174625, -0.0021141357719898224, -0.0020172609947621822, -0.001920386217534542, -0.001823511440306902, -0.0017266366630792618, -0.0016297618858516216, -0.0015328871086239815, -0.0014360123313963413, -0.0013391375541687012, -0.001242262776941061, -0.0011453879997134209, -0.0010485132224857807, -0.0009516384452581406, -0.0008547636680305004, -0.0007578888908028603, -0.0006610141135752201, -0.00056413933634758, -0.0004672645591199398, -0.00037038978189229965, -0.0002735150046646595, -0.00017664022743701935, -7.97654502093792e-05, 1.7109327018260956e-05, 0.00011398387141525745, 0.0002108586486428976, 0.00030773342587053776, 0.0004046082030981779, 0.0005014829803258181, 0.0005983577575534582, 0.0006952325347810984, 0.0007921073120087385, 0.0008889820892363787, 0.0009858568664640188, 0.001082731643691659, 0.0011796064209192991, 0.0012764811981469393, 0.0013733559753745794, 0.0014702307526022196, 0.0015671055298298597, 0.0016639803070574999, 0.00176085508428514, 0.0018577298615127802, 0.0019546046387404203, 0.0020514794159680605, 0.0021483541931957006, 0.002245228970423341, 0.002342103747650981, 0.002438978524878621, 0.0025358533021062613, 0.0026327280793339014, 0.0027296028565615416, 0.0028264776337891817, 0.002923352411016822, 0.003020227188244462, 0.003117101965472102, 0.0032139767426997423]}, "gradients/conv2.weight": {"_type": "histogram", "values": [1.0, 0.0, 0.0, 1.0, 2.0, 0.0, 0.0, 0.0, 0.0, 0.0, 4.0, 3.0, 3.0, 7.0, 3.0, 7.0, 3.0, 6.0, 12.0, 11.0, 12.0, 24.0, 29.0, 29.0, 46.0, 32.0, 47.0, 50.0, 71.0, 86.0, 118.0, 103.0, 127.0, 155.0, 182.0, 178.0, 208.0, 162.0, 148.0, 114.0, 76.0, 67.0, 60.0, 46.0, 34.0, 27.0, 16.0, 26.0, 12.0, 8.0, 5.0, 9.0, 4.0, 7.0, 3.0, 5.0, 3.0, 0.0, 0.0, 1.0, 0.0, 4.0, 1.0, 2.0], "bins": [-0.005200256127864122, -0.005052653141319752, -0.004905050620436668, -0.004757447633892298, -0.004609845113009214, -0.004462242126464844, -0.00431463960558176, -0.00416703661903739, -0.004019433632493019, -0.003871830878779292, -0.003724228125065565, -0.003576625371351838, -0.003429022617638111, -0.0032814196310937405, -0.0031338168773800135, -0.0029862141236662865, -0.002838611602783203, -0.002691008849069476, -0.002543406095355749, -0.002395803341642022, -0.002248200587928295, -0.0021005976013839245, -0.0019529948476701975, -0.0018053920939564705, -0.0016577893402427435, -0.0015101865865290165, -0.0013625838328152895, -0.0012149809626862407, -0.0010673782089725137, -0.0009197754552587867, -0.0007721726433373988, -0.0006245698314160109, -0.00047696707770228386, -0.0003293642948847264, -0.00018176151206716895, -3.41587292496115e-05, 0.00011344405356794596, 0.00026104680728167295, 0.00040864961920306087, 0.0005562524311244488, 0.0007038551848381758, 0.0008514579385519028, 0.0009990606922656298, 0.0011466635623946786, 0.0012942663161084056, 0.0014418690698221326, 0.0015894719399511814, 0.0017370746936649084, 0.0018846774473786354, 0.0020322802010923624, 0.0021798829548060894, 0.0023274857085198164, 0.0024750884622335434, 0.002622691448777914, 0.002770294202491641, 0.002917896956205368, 0.003065499709919095, 0.003213102463632822, 0.003360705217346549, 0.003508307971060276, 0.0036559109576046467, 0.00380351347848773, 0.003951116465032101, 0.004098718985915184, 0.004246321972459555]}, "gradients/conv2.bias": {"_type": "histogram", "values": [1.0, 0.0, 0.0, 0.0, 0.0, 0.0, 0.0, 0.0, 0.0, 0.0, 0.0, 1.0, 0.0, 0.0, 2.0, 0.0, 0.0, 0.0, 0.0, 1.0, 0.0, 0.0, 0.0, 0.0, 0.0, 0.0, 0.0, 0.0, 0.0, 0.0, 1.0, 1.0, 1.0, 1.0, 0.0, 0.0, 1.0, 0.0, 0.0, 0.0, 0.0, 0.0, 0.0, 0.0, 0.0, 0.0, 1.0, 1.0, 0.0, 0.0, 1.0, 0.0, 0.0, 0.0, 0.0, 1.0, 0.0, 1.0, 0.0, 0.0, 0.0, 0.0, 0.0, 1.0], "bins": [-0.003935623914003372, -0.0038332000840455294, -0.00373077648691833, -0.0036283526569604874, -0.003525929059833288, -0.0034235052298754454, -0.003321081632748246, -0.0032186578027904034, -0.003116234205663204, -0.0030138103757053614, -0.002911386778578162, -0.0028089629486203194, -0.00270653935149312, -0.0026041155215352774, -0.002501691924408078, -0.0023992680944502354, -0.002296844497323036, -0.0021944206673651934, -0.002091997070237994, -0.0019895732402801514, -0.0018871496431529522, -0.0017847258131951094, -0.0016823022160679102, -0.0015798783861100674, -0.0014774545561522245, -0.0013750308426097035, -0.0012726071290671825, -0.0011701834155246615, -0.0010677597019821405, -0.0009653359302319586, -0.0008629122166894376, -0.0007604885031469166, -0.0006580648478120565, -0.0005556411342695355, -0.00045321742072701454, -0.0003507936780806631, -0.0002483699645381421, -0.00014594622189179063, -4.352250834926963e-05, 5.890120519325137e-05, 0.00016132486052811146, 0.00026374857407063246, 0.00036617228761315346, 0.0004685960302595049, 0.0005710197146981955, 0.0006734434864483774, 0.0007758671999908984, 0.0008782909135334194, 0.0009807146852836013, 0.0010831383988261223, 0.0011855621123686433, 0.0012879858259111643, 0.0013904095394536853, 0.0014928332529962063, 0.0015952570829540491, 0.0016976806800812483, 0.0018001045100390911, 0.0019025282235816121, 0.002004951937124133, 0.002107375767081976, 0.002209799364209175, 0.002312223194167018, 0.002414646791294217, 0.00251707062125206, 0.002619494218379259]}, "gradients/conv1.weight": {"_type": "histogram", "values": [2.0, 2.0, 0.0, 0.0, 1.0, 0.0, 1.0, 0.0, 0.0, 1.0, 1.0, 3.0, 2.0, 3.0, 2.0, 2.0, 5.0, 3.0, 1.0, 5.0, 3.0, 5.0, 3.0, 3.0, 3.0, 4.0, 1.0, 7.0, 7.0, 3.0, 7.0, 2.0, 5.0, 8.0, 4.0, 5.0, 2.0, 2.0, 1.0, 7.0, 1.0, 5.0, 5.0, 2.0, 4.0, 1.0, 1.0, 3.0, 3.0, 2.0, 1.0, 0.0, 0.0, 1.0, 0.0, 0.0, 1.0, 1.0, 0.0, 0.0, 1.0, 0.0, 1.0, 1.0], "bins": [-0.0033248334657400846, -0.003220164217054844, -0.003115495201200247, -0.003010825952515006, -0.0029061567038297653, -0.0028014876879751682, -0.0026968184392899275, -0.0025921491906046867, -0.0024874801747500896, -0.002382810926064849, -0.002278141910210252, -0.002173472661525011, -0.002068803645670414, -0.0019641343969851732, -0.0018594651482999325, -0.0017547960160300136, -0.0016501268837600946, -0.0015454577514901757, -0.0014407886192202568, -0.001336119370535016, -0.0012314502382650971, -0.0011267811059951782, -0.0010221118573099375, -0.0009174427250400186, -0.0008127735927700996, -0.0007081044605001807, -0.0006034352700226009, -0.0004987660795450211, -0.00039409694727510214, -0.0002894278150051832, -0.0001847586245276034, -8.008943405002356e-05, 2.4579931050539017e-05, 0.0001292490924242884, 0.00023391825379803777, 0.00033858741517178714, 0.0004432565765455365, 0.0005479257088154554, 0.0006525948992930353, 0.0007572640897706151, 0.000861933222040534, 0.0009666023543104529, 0.0010712714865803719, 0.0011759407352656126, 0.0012806098675355315, 0.0013852789998054504, 0.0014899482484906912, 0.00159461738076061, 0.001699286513030529, 0.001803955645300448, 0.0019086247775703669, 0.0020132940262556076, 0.0021179630421102047, 0.0022226322907954454, 0.002327301539480686, 0.0024319705553352833, 0.002536639804020524, 0.0026413090527057648, 0.002745978068560362, 0.0028506473172456026, 0.0029553165659308434, 0.0030599855817854404, 0.003164654830470681, 0.003269324079155922, 0.003373993095010519]}, "gradients/conv1.bias": {"_type": "histogram", "values": [2.0, 0.0, 0.0, 0.0, 0.0, 0.0, 0.0, 0.0, 0.0, 0.0, 0.0, 0.0, 0.0, 0.0, 0.0, 0.0, 0.0, 0.0, 1.0, 1.0, 0.0, 0.0, 0.0, 0.0, 0.0, 0.0, 0.0, 0.0, 0.0, 0.0, 0.0, 0.0, 0.0, 0.0, 0.0, 0.0, 0.0, 0.0, 0.0, 0.0, 0.0, 0.0, 0.0, 0.0, 0.0, 0.0, 0.0, 0.0, 0.0, 0.0, 0.0, 0.0, 0.0, 0.0, 0.0, 0.0, 1.0, 0.0, 0.0, 0.0, 0.0, 0.0, 0.0, 1.0], "bins": [-0.002602269407361746, -0.002542140195146203, -0.0024820109829306602, -0.0024218817707151175, -0.0023617525584995747, -0.002301623346284032, -0.002241494134068489, -0.0021813646890223026, -0.0021212357096374035, -0.0020611064974218607, -0.002000977285206318, -0.001940848072990775, -0.0018807188607752323, -0.0018205896485596895, -0.001760460319928825, -0.001700331107713282, -0.0016402017790824175, -0.0015800725668668747, -0.001519943354651332, -0.001459814142435789, -0.0013996849302202463, -0.0013395557180047035, -0.001279426389373839, -0.001219297177158296, -0.0011591679649427533, -0.0010990387527272105, -0.0010389095405116677, -0.000978780328296125, -0.0009186510578729212, -0.0008585218456573784, -0.0007983925752341747, -0.0007382633630186319, -0.0006781341508030891, -0.0006180049385875463, -0.0005578757263720036, -0.0004977464559487998, -0.00043761724373325706, -0.00037748803151771426, -0.000317358790198341, -0.00025722954887896776, -0.00019710033666342497, -0.00013697110989596695, -7.684188312850893e-05, -1.6712656361050904e-05, 4.341657040640712e-05, 0.00010354578262194991, 0.00016367502394132316, 0.0002238042652606964, 0.0002839334774762392, 0.000344062689691782, 0.00040419193101115525, 0.0004643211723305285, 0.0005244503845460713, 0.0005845795967616141, 0.0006447088671848178, 0.0007048380794003606, 0.0007649672916159034, 0.0008250965038314462, 0.000885225716046989, 0.0009453549864701927, 0.0010054842568933964, 0.0010656134691089392, 0.001125742681324482, 0.0011858718935400248, 0.0012460011057555676]}}