{"loss": 0.16529998183250427, "_runtime": 80, "_timestamp": 1641468037, "_step": 69, "validation_accuracy": 0.9563999772071838, "gradients/fc3.bias": {"_type": "histogram", "values": [1.0, 0.0, 0.0, 0.0, 0.0, 0.0, 0.0, 0.0, 0.0, 0.0, 0.0, 0.0, 0.0, 0.0, 0.0, 0.0, 0.0, 0.0, 0.0, 0.0, 0.0, 0.0, 0.0, 0.0, 1.0, 0.0, 0.0, 0.0, 0.0, 0.0, 0.0, 0.0, 0.0, 1.0, 3.0, 1.0, 0.0, 0.0, 0.0, 0.0, 0.0, 2.0, 0.0, 0.0, 0.0, 0.0, 0.0, 0.0, 0.0, 0.0, 0.0, 0.0, 0.0, 0.0, 0.0, 0.0, 0.0, 0.0, 0.0, 0.0, 0.0, 0.0, 0.0, 1.0], "bins": [-0.005496558733284473, -0.005336432717740536, -0.005176306702196598, -0.00501618068665266, -0.004856054671108723, -0.004695928189903498, -0.00453580217435956, -0.004375676158815622, -0.004215550143271685, -0.004055424127727747, -0.0038952981121838093, -0.003735171863809228, -0.0035750458482652903, -0.0034149198327213526, -0.0032547935843467712, -0.0030946675688028336, -0.002934541553258896, -0.002774415537714958, -0.0026142895221710205, -0.002454163273796439, -0.0022940372582525015, -0.002133911242708564, -0.0019737849943339825, -0.0018136589787900448, -0.001653532963246107, -0.0014934069477021694, -0.00133328081574291, -0.0011731546837836504, -0.0010130286682397127, -0.0008529025944881141, -0.0006927765207365155, -0.000532650388777256, -0.00037252437323331833, -0.00021239829948171973, -5.2272225730121136e-05, 0.00010785384802147746, 0.00026797992177307606, 0.00042810599552467465, 0.0005882320692762733, 0.0007483582012355328, 0.0009084842167794704, 0.0010686102323234081, 0.0012287363642826676, 0.0013888624962419271, 0.0015489885117858648, 0.0017091145273298025, 0.001869240659289062, 0.0020293667912483215, 0.002189492806792259, 0.002349618822336197, 0.0025097448378801346, 0.002669871086254716, 0.0028299971017986536, 0.0029901231173425913, 0.0031502493657171726, 0.0033103753812611103, 0.003470501396805048, 0.0036306274123489857, 0.0037907534278929234, 0.003950879443436861, 0.004111005924642086, 0.004271131940186024, 0.004431257955729961, 0.004591383971273899, 0.004751509986817837]}, "gradients/fc3.weight": {"_type": "histogram", "values": [1.0, 0.0, 0.0, 0.0, 0.0, 1.0, 0.0, 1.0, 0.0, 0.0, 1.0, 0.0, 2.0, 0.0, 0.0, 2.0, 1.0, 0.0, 2.0, 1.0, 1.0, 1.0, 3.0, 4.0, 3.0, 6.0, 0.0, 4.0, 5.0, 5.0, 1.0, 5.0, 10.0, 11.0, 5.0, 18.0, 105.0, 500.0, 38.0, 35.0, 16.0, 6.0, 4.0, 7.0, 1.0, 3.0, 4.0, 0.0, 5.0, 3.0, 3.0, 1.0, 1.0, 2.0, 2.0, 2.0, 3.0, 1.0, 1.0, 1.0, 0.0, 0.0, 1.0, 1.0], "bins": [-0.03232653811573982, -0.03145604953169823, -0.03058556094765663, -0.029715072363615036, -0.02884458564221859, -0.027974097058176994, -0.0271036084741354, -0.026233119890093803, -0.025362633168697357, -0.02449214458465576, -0.023621656000614166, -0.02275116741657257, -0.021880680695176125, -0.02101019211113453, -0.020139703527092934, -0.019269214943051338, -0.018398726359009743, -0.017528237774968147, -0.016657749190926552, -0.015787262469530106, -0.01491677388548851, -0.014046285301446915, -0.01317579671740532, -0.012305308133363724, -0.011434819549322128, -0.010564330965280533, -0.009693843312561512, -0.008823354728519917, -0.007952867075800896, -0.0070823784917593, -0.006211889907717705, -0.005341401789337397, -0.004470914602279663, -0.003600426483899355, -0.002729938132688403, -0.0018594497814774513, -0.0009889616630971432, -0.00011847354471683502, 0.0007520150393247604, 0.0016225031577050686, 0.002492990344762802, 0.0033634784631431103, 0.004233966581523418, 0.005104455165565014, 0.005974943283945322, 0.00684543140232563, 0.007715919986367226, 0.008586408570408821, 0.009456897154450417, 0.010327385738492012, 0.011197873391211033, 0.012068361975252628, 0.01293884962797165, 0.013809338212013245, 0.01467982679605484, 0.015550315380096436, 0.01642080396413803, 0.017291292548179626, 0.018161781132221222, 0.019032269716262817, 0.019902756437659264, 0.02077324502170086, 0.021643733605742455, 0.02251422218978405, 0.023384708911180496]}, "gradients/fc2.bias": {"_type": "histogram", "values": [1.0, 0.0, 0.0, 0.0, 0.0, 2.0, 0.0, 0.0, 0.0, 0.0, 1.0, 0.0, 0.0, 1.0, 1.0, 0.0, 1.0, 0.0, 1.0, 0.0, 0.0, 0.0, 2.0, 0.0, 3.0, 0.0, 1.0, 3.0, 4.0, 3.0, 0.0, 3.0, 8.0, 13.0, 6.0, 2.0, 7.0, 2.0, 1.0, 2.0, 4.0, 1.0, 2.0, 1.0, 0.0, 1.0, 0.0, 0.0, 0.0, 1.0, 0.0, 0.0, 1.0, 1.0, 0.0, 0.0, 1.0, 0.0, 0.0, 1.0, 0.0, 0.0, 0.0, 2.0], "bins": [-0.003163994988426566, -0.003070882288739085, -0.0029777693562209606, -0.0028846566565334797, -0.0027915439568459988, -0.002698431257158518, -0.0026053183246403933, -0.0025122056249529123, -0.0024190929252654314, -0.0023259802255779505, -0.002232867293059826, -0.002139754593372345, -0.002046641893684864, -0.001953529193997383, -0.0018604162614792585, -0.0017673035617917776, -0.0016741907456889749, -0.001581077929586172, -0.0014879652298986912, -0.0013948524137958884, -0.0013017397141084075, -0.0012086268980056047, -0.0011155141983181238, -0.001022401382215321, -0.0009292885661125183, -0.0008361758082173765, -0.0007430630503222346, -0.0006499502342194319, -0.000556837534531951, -0.00046372474753297865, -0.00037061196053400636, -0.0002774992026388645, -0.0001843865029513836, -9.127373778028414e-05, 1.8390273908153176e-06, 9.495179983787239e-05, 0.00018806455773301423, 0.00028117731562815607, 0.00037429010262712836, 0.0004674028605222702, 0.0005605155602097511, 0.000653628318104893, 0.0007467410760000348, 0.0008398538921028376, 0.0009329665917903185, 0.0010260794078931212, 0.001119192223995924, 0.001212304923683405, 0.0013054177397862077, 0.0013985305558890104, 0.0014916432555764914, 0.0015847560716792941, 0.001677868771366775, 0.0017709815874695778, 0.0018640942871570587, 0.0019572069868445396, 0.0020503199193626642, 0.002143432619050145, 0.0022365455515682697, 0.0023296582512557507, 0.0024227709509432316, 0.0025158836506307125, 0.002608996583148837, 0.002702109282836318, 0.002795221982523799]}, "gradients/fc2.weight": {"_type": "histogram", "values": [1.0, 0.0, 0.0, 0.0, 3.0, 1.0, 2.0, 2.0, 0.0, 2.0, 4.0, 1.0, 2.0, 2.0, 9.0, 5.0, 8.0, 10.0, 9.0, 16.0, 19.0, 24.0, 19.0, 25.0, 31.0, 51.0, 49.0, 68.0, 132.0, 177.0, 309.0, 681.0, 5810.0, 1389.0, 495.0, 217.0, 120.0, 79.0, 55.0, 45.0, 41.0, 23.0, 22.0, 23.0, 19.0, 16.0, 15.0, 7.0, 5.0, 10.0, 5.0, 4.0, 3.0, 2.0, 4.0, 1.0, 2.0, 0.0, 2.0, 2.0, 0.0, 1.0, 0.0, 1.0], "bins": [-0.022615130990743637, -0.021925829350948334, -0.02123652771115303, -0.020547226071357727, -0.019857924431562424, -0.01916862279176712, -0.018479321151971817, -0.017790019512176514, -0.01710071787238121, -0.016411416232585907, -0.015722114592790604, -0.0150328129529953, -0.014343511313199997, -0.013654209673404694, -0.012964907102286816, -0.012275605462491512, -0.011586302891373634, -0.010897001251578331, -0.010207699611783028, -0.009518397971987724, -0.008829096332192421, -0.008139794692397118, -0.00745049212127924, -0.006761190481483936, -0.006071887910366058, -0.005382586270570755, -0.004693284630775452, -0.004003982525318861, -0.0033146808855235577, -0.0026253792457282543, -0.0019360771402716637, -0.0012467755004763603, -0.0005574766546487808, 0.00013182510156184435, 0.0008211268577724695, 0.0015104287303984165, 0.00219973037019372, 0.002889032009989023, 0.003578334115445614, 0.004267635755240917, 0.004956936463713646, 0.005646238103508949, 0.006335539743304253, 0.007024841848760843, 0.007714143488556147, 0.008403444662690163, 0.00909274723380804, 0.009782048873603344, 0.010471351444721222, 0.011160653084516525, 0.011849954724311829, 0.012539256364107132, 0.013228558003902435, 0.013917859643697739, 0.014607162214815617, 0.01529646385461092, 0.01598576456308365, 0.016675066202878952, 0.017364367842674255, 0.01805366948246956, 0.018742971122264862, 0.019432272762060165, 0.02012157440185547, 0.020810876041650772, 0.021500179544091225]}, "gradients/fc1.bias": {"_type": "histogram", "values": [1.0, 0.0, 0.0, 0.0, 0.0, 0.0, 0.0, 1.0, 0.0, 0.0, 0.0, 0.0, 0.0, 0.0, 0.0, 2.0, 1.0, 0.0, 0.0, 0.0, 2.0, 0.0, 0.0, 0.0, 1.0, 0.0, 2.0, 1.0, 2.0, 0.0, 1.0, 2.0, 1.0, 3.0, 4.0, 7.0, 6.0, 10.0, 20.0, 7.0, 4.0, 4.0, 1.0, 4.0, 5.0, 4.0, 2.0, 5.0, 0.0, 1.0, 4.0, 1.0, 1.0, 2.0, 3.0, 0.0, 2.0, 1.0, 0.0, 0.0, 1.0, 0.0, 0.0, 1.0], "bins": [-0.0034083996433764696, -0.003321003634482622, -0.0032336078584194183, -0.003146211849525571, -0.003058816073462367, -0.0029714200645685196, -0.0028840242885053158, -0.0027966282796114683, -0.002709232270717621, -0.0026218362618237734, -0.0025344404857605696, -0.002447044476866722, -0.0023596487008035183, -0.002272252691909671, -0.0021848566830158234, -0.0020974609069526196, -0.0020100651308894157, -0.00192266923841089, -0.0018352733459323645, -0.001747877337038517, -0.0016604815609753132, -0.0015730855520814657, -0.00148568965960294, -0.0013982937671244144, -0.001310897758230567, -0.0012235018657520413, -0.0011361059732735157, -0.0010487099643796682, -0.0009613141301088035, -0.0008739182376302779, -0.0007865222869440913, -0.0006991263944655657, -0.0006117303855717182, -0.0005243344930931926, -0.0004369385715108365, -0.0003495426499284804, -0.00026214675744995475, -0.0001747508649714291, -8.735491428524256e-05, 4.0978193283081055e-08, 8.743675425648689e-05, 0.00017483266128692776, 0.0002622285683173686, 0.0003496244898997247, 0.00043702038237825036, 0.000524416274856776, 0.0006118122255429626, 0.0006992081180214882, 0.0007866041269153357, 0.0008740000193938613, 0.0009613959118723869, 0.0010487919207662344, 0.0011361876968294382, 0.0012235837057232857, 0.0013109795982018113, 0.001398375490680337, 0.0014857713831588626, 0.0015731672756373882, 0.0016605631681159139, 0.0017479590605944395, 0.001835355069488287, 0.0019227508455514908, 0.0020101468544453382, 0.0020975428633391857, 0.0021849386394023895]}, "gradients/fc1.weight": {"_type": "histogram", "values": [1.0, 0.0, 1.0, 0.0, 0.0, 0.0, 2.0, 1.0, 3.0, 2.0, 4.0, 2.0, 0.0, 5.0, 5.0, 11.0, 9.0, 9.0, 9.0, 14.0, 17.0, 12.0, 19.0, 18.0, 27.0, 17.0, 23.0, 33.0, 39.0, 64.0, 79.0, 102.0, 153.0, 151.0, 245.0, 469.0, 921.0, 2450.0, 19666.0, 2580.0, 1203.0, 758.0, 472.0, 249.0, 184.0, 131.0, 110.0, 94.0, 81.0, 67.0, 42.0, 46.0, 30.0, 28.0, 19.0, 9.0, 14.0, 5.0, 4.0, 5.0, 2.0, 0.0, 2.0, 2.0], "bins": [-0.03509756922721863, -0.034188006073236465, -0.0332784466445446, -0.03236888349056244, -0.031459324061870575, -0.030549760907888412, -0.0296401996165514, -0.028730638325214386, -0.027821075171232224, -0.02691151387989521, -0.026001952588558197, -0.025092389434576035, -0.02418282814323902, -0.023273266851902008, -0.022363705560564995, -0.02145414426922798, -0.02054458297789097, -0.019635021686553955, -0.018725460395216942, -0.01781589910387993, -0.016906335949897766, -0.015996774658560753, -0.01508721336722374, -0.014177652075886726, -0.013268090784549713, -0.0123585294932127, -0.011448967270553112, -0.010539405979216099, -0.009629843756556511, -0.008720282465219498, -0.0078107211738824844, -0.006901159416884184, -0.005991596728563309, -0.005082034971565008, -0.004172473214566708, -0.0032629119232296944, -0.002353350166231394, -0.0014437884092330933, -0.00053422711789608, 0.00037533463910222054, 0.0012848973274230957, 0.0021944590844213963, 0.003104020608589053, 0.00401358213275671, 0.004923143889755011, 0.005832705646753311, 0.006742266938090324, 0.007651828695088625, 0.008561389520764351, 0.009470950812101364, 0.010380513034760952, 0.011290074326097965, 0.012199636548757553, 0.013109197840094566, 0.01401875913143158, 0.014928320422768593, 0.015837881714105606, 0.01674744300544262, 0.017657004296779633, 0.018566567450761795, 0.01947612874209881, 0.02038569003343582, 0.021295251324772835, 0.022204812616109848, 0.02311437577009201]}, "gradients/conv2.weight": {"_type": "histogram", "values": [1.0, 1.0, 0.0, 0.0, 2.0, 1.0, 2.0, 2.0, 3.0, 2.0, 2.0, 2.0, 3.0, 8.0, 8.0, 6.0, 7.0, 4.0, 7.0, 7.0, 10.0, 13.0, 16.0, 12.0, 18.0, 19.0, 23.0, 31.0, 23.0, 48.0, 57.0, 51.0, 61.0, 78.0, 89.0, 108.0, 129.0, 159.0, 208.0, 267.0, 198.0, 151.0, 102.0, 79.0, 61.0, 61.0, 40.0, 55.0, 28.0, 25.0, 19.0, 15.0, 24.0, 15.0, 7.0, 7.0, 3.0, 5.0, 4.0, 2.0, 3.0, 3.0, 3.0, 2.0], "bins": [-0.025041041895747185, -0.02440486289560795, -0.023768683895468712, -0.023132504895329475, -0.02249632589519024, -0.021860146895051003, -0.021223967894911766, -0.02058778889477253, -0.019951609894633293, -0.019315430894494057, -0.01867925189435482, -0.018043072894215584, -0.017406893894076347, -0.01677071489393711, -0.016134535893797874, -0.015498356893658638, -0.014862177893519402, -0.014225998893380165, -0.013589819893240929, -0.012953640893101692, -0.012317461892962456, -0.01168128289282322, -0.011045103892683983, -0.010408924892544746, -0.00977274589240551, -0.009136566892266273, -0.008500387892127037, -0.0078642088919878, -0.007228029891848564, -0.006591850891709328, -0.005955671891570091, -0.005319492891430855, -0.004683312028646469, -0.004047133028507233, -0.003410954028367996, -0.0027747750282287598, -0.0021385960280895233, -0.0015024170279502869, -0.0008662380278110504, -0.00023005902767181396, 0.0004061199724674225, 0.001042298972606659, 0.0016784779727458954, 0.002314656972885132, 0.0029508359730243683, 0.0035870149731636047, 0.004223193973302841, 0.004859372973442078, 0.005495551973581314, 0.0061317309737205505, 0.006767909973859787, 0.0074040889739990234, 0.00804026797413826, 0.008676446974277496, 0.009312625974416733, 0.00994880497455597, 0.010584983974695206, 0.011221162974834442, 0.011857341974973679, 0.012493520975112915, 0.013129699975252151, 0.013765878975391388, 0.014402057975530624, 0.01503823697566986, 0.015674415975809097]}, "gradients/conv2.bias": {"_type": "histogram", "values": [1.0, 0.0, 0.0, 0.0, 0.0, 0.0, 1.0, 0.0, 0.0, 0.0, 0.0, 0.0, 0.0, 0.0, 0.0, 0.0, 1.0, 0.0, 0.0, 0.0, 0.0, 0.0, 0.0, 0.0, 1.0, 0.0, 1.0, 0.0, 3.0, 0.0, 1.0, 0.0, 0.0, 0.0, 0.0, 0.0, 1.0, 1.0, 0.0, 0.0, 0.0, 0.0, 0.0, 0.0, 1.0, 0.0, 0.0, 0.0, 0.0, 0.0, 1.0, 0.0, 0.0, 0.0, 0.0, 0.0, 1.0, 0.0, 0.0, 1.0, 0.0, 0.0, 0.0, 1.0], "bins": [-0.006483627948909998, -0.0063130613416433334, -0.006142494268715382, -0.005971927661448717, -0.005801361054182053, -0.005630793981254101, -0.005460227373987436, -0.005289660766720772, -0.00511909369379282, -0.0049485270865261555, -0.004777960013598204, -0.004607393406331539, -0.004436826333403587, -0.004266259726136923, -0.004095693118870258, -0.0039251260459423065, -0.003754559438675642, -0.003583992598578334, -0.0034134257584810257, -0.003242859151214361, -0.003072292311117053, -0.002901725471019745, -0.0027311588637530804, -0.002560592023655772, -0.002390025183558464, -0.002219458343461156, -0.0020488915033638477, -0.0018783248960971832, -0.001707758055999875, -0.001537191215902567, -0.0013666244922205806, -0.0011960577685385942, -0.0010254904627799988, -0.0008549236808903515, -0.0006843568990007043, -0.000513790117111057, -0.0003432233352214098, -0.00017265655333176255, -2.089771442115307e-06, 0.00016847695223987103, 0.0003390437923371792, 0.0005096105742268264, 0.0006801773561164737, 0.0008507441380061209, 0.0010213109198957682, 0.0011918777599930763, 0.0013624444836750627, 0.001533011207357049, 0.0017035780474543571, 0.0018741448875516653, 0.0020447117276489735, 0.002215278334915638, 0.002385845175012946, 0.0025564120151102543, 0.002726978622376919, 0.002897545462474227, 0.003068112302571535, 0.0032386791426688433, 0.0034092459827661514, 0.003579812590032816, 0.003750379430130124, 0.003920946270227432, 0.004091512877494097, 0.004262079484760761, 0.004432646557688713]}, "gradients/conv1.weight": {"_type": "histogram", "values": [1.0, 0.0, 0.0, 3.0, 1.0, 2.0, 1.0, 6.0, 3.0, 2.0, 3.0, 4.0, 4.0, 5.0, 2.0, 4.0, 4.0, 3.0, 0.0, 6.0, 6.0, 5.0, 2.0, 3.0, 5.0, 2.0, 4.0, 2.0, 4.0, 6.0, 3.0, 8.0, 3.0, 2.0, 3.0, 2.0, 4.0, 3.0, 1.0, 1.0, 0.0, 1.0, 2.0, 4.0, 1.0, 1.0, 2.0, 0.0, 2.0, 0.0, 0.0, 2.0, 0.0, 1.0, 0.0, 2.0, 1.0, 1.0, 1.0, 0.0, 2.0, 1.0, 1.0, 2.0], "bins": [-0.011321935802698135, -0.010897190310060978, -0.010472443886101246, -0.010047698393464088, -0.009622951969504356, -0.009198206476867199, -0.008773460984230042, -0.00834871456027031, -0.007923969067633152, -0.007499223109334707, -0.0070744771510362625, -0.006649731658399105, -0.00622498570010066, -0.005800239741802216, -0.005375494249165058, -0.004950748290866613, -0.004526002332568169, -0.004101256374269724, -0.003676510648801923, -0.0032517649233341217, -0.002827018965035677, -0.002402273006737232, -0.001977527281269431, -0.00155278155580163, -0.0011280355975031853, -0.0007032897556200624, -0.00027854391373693943, 0.0001462019281461835, 0.0005709477700293064, 0.0009956937283277512, 0.0014204394537955523, 0.0018451851792633533, 0.002269931137561798, 0.002694677095860243, 0.003119422821328044, 0.003544168546795845, 0.00396891450509429, 0.0043936604633927345, 0.004818405956029892, 0.005243151914328337, 0.0056678978726267815, 0.006092643830925226, 0.006517389789223671, 0.006942135281860828, 0.007366881240159273, 0.007791627198457718, 0.008216372691094875, 0.008641118183732033, 0.009065864607691765, 0.009490610100328922, 0.009915356524288654, 0.010340102016925812, 0.010764848440885544, 0.011189593933522701, 0.011614339426159859, 0.01203908585011959, 0.012463831342756748, 0.012888576835393906, 0.013313323259353638, 0.013738068751990795, 0.014162814244627953, 0.014587560668587685, 0.015012306161224842, 0.015437051653862, 0.01586179807782173]}, "gradients/conv1.bias": {"_type": "histogram", "values": [1.0, 0.0, 0.0, 0.0, 0.0, 0.0, 0.0, 0.0, 0.0, 1.0, 0.0, 0.0, 0.0, 0.0, 0.0, 0.0, 0.0, 0.0, 0.0, 0.0, 1.0, 0.0, 0.0, 0.0, 0.0, 0.0, 0.0, 0.0, 0.0, 0.0, 1.0, 0.0, 0.0, 0.0, 0.0, 0.0, 0.0, 0.0, 0.0, 0.0, 0.0, 0.0, 0.0, 0.0, 0.0, 0.0, 0.0, 1.0, 0.0, 0.0, 0.0, 0.0, 0.0, 0.0, 0.0, 0.0, 0.0, 0.0, 0.0, 0.0, 0.0, 0.0, 0.0, 1.0], "bins": [-0.016989892348647118, -0.016419559717178345, -0.015849227085709572, -0.015278895385563374, -0.0147085627540946, -0.014138230122625828, -0.01356789842247963, -0.012997565791010857, -0.012427233159542084, -0.01185690052807331, -0.011286567896604538, -0.01071623619645834, -0.010145903564989567, -0.009575570933520794, -0.009005239233374596, -0.008434906601905823, -0.00786457397043705, -0.007294241338968277, -0.006723909173160791, -0.006153577007353306, -0.005583244375884533, -0.00501291174441576, -0.0044425795786082745, -0.003872247412800789, -0.003301914781332016, -0.0027315823826938868, -0.0021612499840557575, -0.0015909175854176283, -0.001020585186779499, -0.0004502527881413698, 0.00012007961049675941, 0.000690411776304245, 0.0012607462704181671, 0.0018310786690562963, 0.0024014110676944256, 0.002971743466332555, 0.003542075864970684, 0.004112408496439457, 0.0046827406622469425, 0.005253072828054428, 0.005823405459523201, 0.006393738090991974, 0.0069640702567994595, 0.007534402422606945, 0.008104735054075718, 0.00867506768554449, 0.009245399385690689, 0.009815732017159462, 0.010386064648628235, 0.010956397280097008, 0.01152672991156578, 0.012097061611711979, 0.012667394243180752, 0.013237726874649525, 0.013808058574795723, 0.014378391206264496, 0.014948723837733269, 0.015519056469202042, 0.016089389100670815, 0.016659721732139587, 0.01723005250096321, 0.017800385132431984, 0.018370717763900757, 0.01894105039536953, 0.019511383026838303]}, "_wandb": {"runtime": 80}}